data_t_fractional biases_convolution[7] = {-0.465998560190, -0.439430445433, -0.319592475891, -0.019715646282, -0.491859793663, -0.268301367760, -0.142019271851};
//#Pragma HLS array_partition variable=biases_convolution
data_t_fractional weights_convolution[175] = {0.008790476248, 0.081367090344, -0.126230984926, -0.541197955608, 0.024831121787, 0.251833528280, 0.234935849905, 0.083559438586, 0.288621753454, -0.294868856668, -0.470064073801, 0.221848636866, 0.216874852777, 0.223628506064, 0.250471651554, 0.144417330623, -0.406875908375, -0.342714279890, -0.017630094662, 0.124293945730, 0.271934062243, 0.077226363122, 0.010270462371, -0.408490061760, -0.192184314132, 0.225373566151, 0.220467358828, 0.121154256165, -0.034557219595, -0.323396742344, -0.338085651398, -0.235379725695, 0.219015315175, 0.100462205708, 0.394964277744, -0.179821804166, -0.233297735453, 0.351295948029, -0.472498208284, 0.263775229454, 0.159141361713, 0.057257622480, 0.202395081520, 0.213835567236, 0.146555289626, -0.317745745182, -0.089731581509, 0.044274613261, 0.080188639462, 0.178098186851, 0.287583559752, 0.046494241804, -0.219819739461, 0.119601614773, 0.277440518141, 0.427557557821, 0.165563806891, 0.068738587201, -0.176102623343, -0.236018076539, 0.003530032234, 0.170926168561, 0.199484646320, -0.097263172269, -0.252463161945, -0.378785163164, -0.156555861235, 0.053221158683, 0.196597695351, 0.026355648413, -0.150427982211, -0.381823956966, 0.344926089048, -0.429365664721, -0.035084996372, -0.139911994338, -0.097813166678, 0.135332509875, 0.029845446348, 0.369628369808, -0.235116869211, 0.014224591665, 0.004528317135, 0.031466614455, 0.140843808651, 0.357574224472, 0.393326848745, -0.138801440597, 0.059781502932, -0.113977029920, 0.137687101960, 0.099388793111, 0.368502944708, 0.334201782942, 0.011094862595, 0.000367611996, 0.069650970399, -0.098619043827, -0.055862762034, -0.138851121068, -0.002058402635, 0.306416094303, 0.090874888003, 0.134462416172, -0.290931314230, -0.163078203797, -0.278524667025, 0.046483099461, -0.269334524870, 0.236114293337, -0.299718409777, -0.510180890560, 0.180726960301, -0.190291836858, -0.025248894468, -0.121555626392, -0.046105399728, -0.223003089428, -0.138509586453, 0.062452081591, 0.105762764812, 0.229676544666, 0.109577775002, 0.013561110944, -0.212896734476, -0.286889642477, -0.066071145236, 0.194661393762, 0.095614477992, 0.183067098260, 0.065967381001, -0.193313717842, -0.414084464312, -0.067762978375, 0.195557728410, 0.114051476121, 0.396307468414, 0.159198373556, 0.057053100318, -0.414463818073, 0.269907921553, -0.375632584095, -0.352222234011, 0.102330014110, 0.070009030402, -0.073827743530, -0.338252097368, 0.049979537725, -0.350877016783, -0.107857219875, 0.229126244783, 0.063012540340, 0.009455000982, -0.331247806549, 0.204144537449, 0.036288242787, 0.066199205816, 0.354683250189, 0.156203374267, -0.232076004148, -0.249020472169, 0.138827234507, 0.240623742342, 0.051560819149, 0.184335008264, 0.106983855367, -0.087127186358, -0.071537435055, 0.196453675628, 0.146764472127, 0.186924606562, 0.323496013880, 0.229821622372, -0.219327047467, -0.312922835350};
//#Pragma HLS array_partition variable=weights_convolution
data_t_fractional biases_dense64[64] = {0.081752493978, 0.062783695757, 0.037815015763, 0.094086028636, -0.043181475252, -0.068809062243, 0.008506291546, 0.092415012419, 0.072762355208, -0.041585635394, 0.015082133003, 0.082509078085, 0.096754513681, -0.222396209836, -0.170661047101, -0.143246948719, 0.021798945963, -0.024737471715, -0.011673619039, 0.118063889444, -0.018189819530, 0.055265419185, -0.179201185703, 0.032874967903, 0.166778460145, -0.015109593980, -0.060883119702, 0.070038191974, -0.064831912518, -0.047015156597, 0.000674823415, 0.004846436437, 0.133447110653, -0.196167007089, -0.176426768303, 0.177828580141, 0.133836254478, -0.004676927347, 0.161957725883, -0.069052688777, -0.184280663729, -0.033460631967, 0.015903925523, 0.005042550154, -0.045213147998, -0.029916631058, 0.004955884535, 0.020128821954, 0.006319719832, 0.041073992848, -0.017589136958, -0.156184941530, 0.126672312617, 0.149332255125, -0.224909186363, 0.007798766717, -0.065672636032, 0.014215936884, 0.072999484837, -0.021208610386, -0.079522825778, 0.126991018653, 0.075941696763, -0.008368689567};
//#Pragma HLS array_partition variable=biases_dense64
data_t_fractional weights_dense64[21952] = {-0.125762760639, -0.153714150190, 0.117924831808, 0.011102440767, -0.071824029088, 0.053734734654, -0.163530245423, 0.030705492944, 0.070915065706, -0.103112384677, -0.129809111357, 0.031110001728, 0.259025722742, 0.025284297764, 0.031740475446, -0.106940507889, -0.071624517441, 0.017563575879, 0.021644106135, -0.048284843564, -0.023492973298, 0.006598035339, 0.032730583102, -0.041213866323, -0.106203109026, 0.026218254119, -0.083701081574, 0.063667096198, 0.189702302217, -0.130801394582, 0.036264326423, -0.008925192989, 0.165138572454, -0.221240654588, -0.147160559893, 0.168076917529, 0.131636127830, -0.011234838516, -0.051395326853, -0.076915986836, 0.062039427459, 0.155969992280, -0.027033090591, -0.038341682404, -0.161452546716, -0.008545021527, 0.005182788707, 0.242385745049, 0.001917178743, -0.389808744192, 0.194058716297, -0.044844489545, 0.071541301906, -0.106266401708, -0.084052175283, -0.032044611871, -0.000081391947, 0.004697320051, 0.108391910791, -0.047665625811, -0.087659977376, 0.055177304894, 0.032841149718, -0.013546301052, -0.073430195451, -0.035476945341, 0.080339141190, 0.050703510642, -0.155115202069, -0.083474569023, -0.237088337541, 0.146841794252, 0.078067034483, 0.070513822138, -0.109183765948, 0.002922524465, 0.350768744946, 0.089466623962, -0.092679746449, -0.153816238046, -0.032823309302, -0.044576104730, 0.035356216133, 0.001003649319, 0.079946376383, -0.126624241471, 0.109463892877, 0.092791095376, -0.026843013242, -0.120899640024, 0.033200122416, 0.104221813381, 0.088132947683, -0.196981698275, 0.366630017757, -0.016428451985, 0.091759569943, -0.239557251334, -0.174192726612, 0.145244762301, -0.022440822795, -0.080293945968, -0.100518830121, -0.044255711138, -0.080454662442, 0.117272473872, 0.233274146914, 0.046526353806, -0.205885589123, -0.000950048736, -0.181917145848, 0.162152722478, 0.103083439171, -0.317427933216, 0.106913097203, 0.115681923926, 0.038257811219, -0.032338622957, -0.022176587954, 0.048593915999, -0.125774964690, 0.059313144535, 0.001132317819, -0.013298677281, 0.062786407769, -0.080460995436, 0.076903387904, 0.069980666041, -0.202882930636, -0.229145169258, 0.078413650393, 0.097682364285, 0.062871985137, -0.177884951234, -0.332411468029, -0.003984202631, -0.019966946915, 0.027438374236, -0.072338826954, 0.014716843143, 0.395915210247, -0.051107876003, -0.091078914702, -0.024529865012, 0.007834386081, -0.039725694805, -0.004436272662, -0.123640507460, -0.109419561923, 0.073802202940, 0.150135442615, -0.063384450972, 0.036707907915, -0.018228758126, 0.145783752203, 0.067600257695, 0.036766823381, -0.019948212430, 0.170162618160, -0.191368907690, 0.055574066937, -0.323383629322, -0.021025089547, -0.015825824812, 0.134513214231, -0.058975730091, -0.043242301792, -0.052449464798, -0.004912063014, 0.115346185863, 0.004137897398, -0.009391457774, -0.273111641407, 0.065624296665, -0.180031046271, 0.331546932459, -0.078284874558, -0.204169496894, 0.168345898390, -0.005775570869, 0.083865597844, 0.016277892515, 0.049922917038, 0.141565039754, -0.140908047557, 0.100190505385, 0.117097653449, -0.024009471759, 0.050922065973, -0.066121317446, 0.090829044580, -0.129125297070, 0.019388623536, -0.053890161216, -0.021522071213, -0.042966235429, 0.088542468846, 0.114350639284, -0.186980798841, 0.041136998683, 0.062747307122, 0.021079070866, -0.186751216650, 0.046293899417, -0.012498283759, -0.038518480957, 0.062192637473, 0.053709834814, 0.082433924079, 0.086380168796, -0.032310407609, -0.004573651589, 0.102001272142, -0.062091659755, 0.078288912773, 0.097582764924, 0.034587223083, -0.036392748356, 0.006536311004, 0.008499701507, -0.113881357014, 0.029881684110, 0.011723721400, -0.131670475006, -0.010192338377, -0.135551974177, -0.068204745650, 0.121530294418, 0.066653415561, 0.006252431776, -0.037789791822, -0.068753644824, 0.065421201289, -0.014115481637, -0.018200466409, -0.003546399064, 0.024605693296, 0.021901309490, -0.184062093496, 0.021683730185, -0.022015025839, -0.269778519869, 0.014237175696, -0.000584325113, -0.053256727755, -0.057514701039, -0.057158678770, -0.101804718375, 0.039459519088, -0.001974916318, -0.105045497417, -0.015405374579, 0.006906241179, 0.048431064934, 0.148829743266, 0.103782966733, -0.083903878927, -0.125006690621, 0.013693852350, 0.013964958489, -0.170509278774, -0.027027474716, -0.265626549721, 0.013085444458, 0.117140464485, -0.001829258166, -0.124111004174, 0.011866851710, 0.169522643089, -0.008541572839, -0.139076590538, -0.063699729741, -0.003039998701, 0.017973143607, 0.073068089783, -0.098911598325, 0.028891045600, -0.092166945338, 0.103443145752, 0.067764595151, -0.054543253034, 0.013450567611, -0.092368043959, 0.028495993465, 0.203129112720, -0.123921871185, 0.154468417168, -0.067686118186, 0.163608953357, -0.252967029810, -0.153311744332, 0.009177880362, 0.130848184228, -0.042009383440, -0.032006692141, 0.001221166807, 0.049851138145, 0.004429899622, 0.055128667504, 0.050964146852, -0.109907895327, 0.005557103548, -0.049632430077, 0.088151969016, -0.054406493902, -0.177980989218, 0.150229647756, 0.070512726903, 0.126857012510, -0.087949827313, -0.079728975892, 0.016955247149, -0.090192623436, 0.067568510771, -0.136317536235, -0.008503216319, 0.060416579247, -0.077463172376, 0.102243974805, 0.067629121244, -0.138363361359, -0.238497704268, 0.224685147405, 0.116953991354, 0.007594066206, -0.144265115261, -0.195369601250, -0.016743633896, 0.023028226569, 0.056494519114, 0.032705824822, 0.207247376442, 0.227228745818, 0.075510650873, -0.182029813528, 0.131012275815, 0.094200208783, 0.030032299459, -0.118171766400, 0.000996595132, -0.091178067029, 0.116578437388, 0.069755077362, -0.093303270638, -0.009421726689, 0.022691408172, -0.089501500130, -0.127476274967, 0.175655975938, -0.011062170379, 0.071357034147, 0.018344728276, 0.117200165987, -0.247600138187, 0.042331065983, -0.092616453767, 0.039359178394, -0.053061101586, 0.142139866948, -0.040788527578, 0.040323957801, 0.124238856137, 0.119867205620, -0.007576446515, -0.128113761544, 0.088858768344, -0.150027781725, 0.154924899340, -0.027218345553, -0.230617329478, 0.010097849183, -0.031092444435, 0.065471477807, -0.006572356448, -0.007078414317, 0.274829655886, -0.215383991599, 0.156931936741, -0.113901644945, 0.184336230159, -0.149120405316, -0.059761617333, 0.001226108288, 0.074004963040, -0.145871877670, -0.154406219721, 0.025875901803, -0.000173421970, 0.026830328628, -0.140609413385, -0.021086400375, -0.162983655930, 0.076400585473, 0.097598843277, -0.055190272629, 0.013028279878, 0.201262950897, 0.087762445211, -0.013656548224, 0.117823079228, 0.216569647193, 0.065624579787, -0.149060592055, -0.016790749505, -0.026970515028, 0.037812504917, 0.131111815572, 0.062124200165, 0.195080563426, 0.102911151946, 0.131492391229, -0.171732634306, 0.141754761338, 0.199256464839, -0.081728346646, -0.029198816046, 0.205117613077, -0.086268529296, 0.167091578245, -0.038888938725, -0.016119236127, -0.142532527447, 0.104078382254, -0.193314954638, 0.201787322760, -0.034243181348, 0.027523219585, 0.127283707261, -0.187959745526, 0.199446216226, -0.127826154232, 0.001664533862, -0.113221019506, -0.233497843146, 0.012063357979, -0.262004464865, 0.308463752270, -0.116189241409, 0.038682647049, 0.264858841896, -0.028894292191, -0.123113341630, -0.178964123130, 0.124162219465, 0.039619717747, -0.205185279250, -0.118139758706, -0.090328417718, -0.038077536970, -0.075273014605, 0.042087733746, 0.018002642319, -0.049965374172, -0.015918882564, -0.125749185681, -0.054155774415, 0.049810633063, 0.081083469093, -0.144984722137, 0.151481181383, 0.105886928737, -0.010428218171, 0.072226054966, -0.025886572897, 0.055608391762, 0.160092622042, 0.004879751708, -0.013756291009, 0.090012967587, -0.133586391807, 0.080340847373, -0.022452987731, -0.033984165639, -0.030240878463, 0.043513350189, -0.075306832790, 0.031619433314, 0.098068177700, 0.068362951279, 0.019100904465, 0.143222510815, -0.054032590240, -0.090032637119, -0.020511804149, -0.005692503415, 0.065878257155, -0.112320847809, -0.094308964908, 0.079885497689, -0.001047100057, 0.026531383395, -0.055994044989, -0.114501446486, 0.030382074416, -0.115888096392, 0.009480341338, 0.031098242849, -0.145249068737, 0.025844054297, -0.058138083667, 0.207783058286, -0.093981303275, 0.021626427770, -0.040742263198, 0.016625026241, 0.000568937277, -0.007923919708, -0.075065225363, 0.030558507890, 0.079754099250, 0.152736946940, -0.030951172113, -0.030656643212, -0.164640724659, 0.108501650393, -0.082125276327, 0.028418650851, 0.027374465019, -0.255438625813, -0.000023486820, 0.011191694997, 0.177594408393, 0.075834058225, 0.169345930219, -0.078427411616, -0.189467400312, -0.168586552143, -0.164490818977, -0.054089307785, -0.104112789035, 0.073007531464, -0.096582397819, 0.066581808031, -0.067418612540, -0.009778141975, 0.018678041175, 0.091771222651, 0.055737432092, 0.256753474474, -0.003878894961, 0.164183318615, -0.110631778836, 0.122207634151, 0.102015554905, -0.019363719970, -0.139146178961, 0.009441525675, 0.088394783437, 0.170424148440, 0.010656558909, -0.103516221046, -0.073788404465, 0.009580164216, 0.164736136794, 0.107620261610, -0.004413477611, -0.336342811584, 0.035242475569, -0.107202403247, 0.119911022484, -0.112525984645, -0.211801290512, 0.121076002717, 0.005179305561, 0.156008675694, -0.087776891887, 0.085164085031, 0.155179828405, -0.132672384381, 0.154004409909, 0.101987756789, -0.036632932723, 0.016166731715, -0.119509294629, -0.027033276856, 0.037194605917, 0.036663945764, -0.207772165537, 0.133264020085, -0.015809668228, 0.034523773938, 0.110160142183, -0.154195293784, -0.014211546630, -0.028339298442, -0.031443931162, -0.145310863853, 0.072272703052, -0.059919036925, 0.038226757199, -0.089771814644, -0.007804184686, 0.091432712972, 0.093756325543, -0.123445950449, 0.001456167083, 0.033112633973, 0.061265572906, 0.031677879393, 0.031665205956, -0.046271398664, 0.008039993234, 0.067952357233, -0.168138355017, -0.035799071193, 0.105648472905, -0.104424223304, -0.102918066084, 0.173064142466, -0.012971462682, 0.126820012927, 0.146111220121, 0.022751046345, -0.029186496511, -0.084543831646, -0.013499563560, -0.015510226600, 0.067288838327, -0.077739082277, -0.025048665702, -0.141401395202, 0.118909098208, -0.047385726124, 0.161993950605, 0.018406370655, -0.247648134828, 0.045795746148, 0.026509720832, 0.197736382484, -0.140977725387, 0.019475875422, -0.005244565196, -0.038330044597, 0.041719339788, -0.069524869323, 0.042465090752, 0.084635123610, 0.043472547084, 0.118435569108, -0.041127491742, -0.073785096407, -0.173166841269, 0.010912501253, -0.055678714067, -0.058319333941, 0.082327663898, -0.041174773127, -0.035846184939, 0.064136445522, 0.108619146049, -0.067689716816, 0.067705288529, -0.157611757517, -0.029547085986, 0.110461644828, -0.009490532801, 0.144746258855, 0.046122852713, -0.022427238524, 0.056367080659, -0.021002380177, 0.091810494661, 0.073959581554, -0.054111972451, 0.013880263083, 0.015132129192, 0.063270740211, -0.036476343870, 0.022325485945, -0.003902459983, -0.127990037203, -0.005270522088, -0.033219441772, -0.054651439190, -0.020885288715, 0.001290507149, 0.048756483942, 0.137483239174, -0.003723656293, 0.057850599289, 0.108792580664, 0.022775791585, -0.084700353444, -0.037590079010, 0.089089415967, 0.063221268356, 0.061323907226, 0.080601163208, 0.058705583215, -0.039289388806, -0.073774978518, -0.040998097509, 0.086891129613, -0.056882008910, -0.064740747213, -0.040208864957, -0.001476807869, 0.080336689949, -0.147411406040, -0.043878473341, 0.031136738136, 0.075658559799, 0.073571152985, -0.060822788626, 0.089673243463, -0.170090183616, 0.074688836932, -0.176864370704, -0.055976789445, -0.029812119901, -0.108408898115, -0.077304020524, 0.095617115498, 0.129225328565, -0.102815724909, -0.024007245898, -0.020319011062, -0.077412776649, -0.106297560036, 0.003060490126, 0.196447044611, 0.056934557855, -0.019430082291, -0.082134097815, 0.084072023630, 0.034987870604, 0.059820506722, 0.030972860754, -0.027327127755, -0.046044562012, 0.024276671931, 0.019456055015, 0.147665530443, 0.016730351374, -0.056661557406, -0.100917972624, 0.147558331490, -0.024875996634, -0.033143587410, -0.047570377588, 0.120727837086, -0.070501111448, 0.010047339834, -0.162667468190, 0.008029193617, -0.104468852282, -0.088673330843, 0.021894240752, -0.066163271666, 0.070979975164, -0.147006943822, 0.027703445405, -0.083309702575, -0.186416193843, -0.024561990052, -0.028559049591, 0.089993715286, 0.070422716439, 0.059979740530, 0.056225027889, -0.030718235299, 0.014752784744, -0.060737691820, -0.096520632505, 0.052472349256, -0.047175560147, 0.154315635562, 0.026289392263, -0.074427351356, -0.161649629474, 0.085644401610, -0.200901329517, 0.177863433957, 0.193427860737, -0.123263187706, -0.010885089636, 0.068628355861, 0.061366967857, -0.094880297780, -0.036119494587, 0.010399567895, 0.008755264804, 0.030418768525, 0.096825659275, 0.174575164914, -0.017007727176, -0.195733115077, 0.020129511133, 0.076836816967, -0.032945502549, -0.007405726705, -0.011104083620, 0.090424604714, 0.255921632051, 0.034333888441, -0.135726466775, -0.137365028262, 0.166188359261, -0.307707875967, -0.033823404461, -0.023777585477, -0.010838196613, 0.054901514202, 0.162812992930, 0.180108457804, -0.087752267718, 0.200100302696, -0.188815459609, 0.045648209751, 0.051291625947, -0.163058266044, 0.022085903212, 0.011252277531, 0.135039299726, -0.045341335237, 0.166916444898, -0.037841811776, -0.352305591106, -0.048348937184, -0.038694955409, 0.096752010286, 0.023273924366, -0.027009101585, 0.070670269430, 0.108950294554, 0.076363511384, -0.253509581089, 0.184708863497, 0.058444865048, 0.014925850555, 0.007160472218, 0.029547065496, 0.049206905067, 0.012997597456, 0.154996752739, -0.088296659291, 0.072058312595, 0.133666768670, -0.061272043735, -0.082951195538, 0.030778039247, 0.027202162892, 0.016342876479, -0.107330083847, -0.137838125229, 0.052006613463, -0.027290036902, 0.118286699057, 0.115444466472, -0.035424053669, -0.057856835425, 0.054575465620, -0.014432904311, -0.019023984671, 0.108716823161, 0.057144433260, 0.145787954330, 0.382363736629, 0.010439197533, -0.179215878248, -0.169355243444, 0.353698581457, -0.246789097786, -0.032821249217, 0.032386727631, -0.139175668359, 0.165818944573, 0.034791618586, 0.197982862592, -0.025180464610, 0.087407313287, -0.039360910654, -0.023163123056, 0.017061529681, -0.169325992465, 0.006667310372, -0.115448847413, 0.142287701368, -0.070816397667, -0.054783161730, -0.027524502948, -0.305115550756, -0.178403958678, -0.234217911959, 0.097553774714, 0.090791955590, 0.011509632692, 0.023137640208, 0.093304783106, 0.069799356163, -0.361279785633, 0.071272805333, -0.159616500139, 0.024745836854, 0.048398382962, -0.058773081750, 0.019231351092, -0.216454192996, 0.073750711977, -0.154245898128, -0.030788792297, 0.053058106452, -0.156873390079, -0.047723527998, -0.000824691961, 0.068587742746, -0.115608274937, 0.011333054863, -0.085048571229, -0.052580699325, -0.124527983367, -0.071520082653, 0.060258258134, 0.153528288007, 0.013287849724, 0.071366794407, 0.062760718167, 0.028645340353, 0.055494535714, 0.065142199397, 0.105334177613, -0.165937602520, 0.043256744742, 0.019169559702, 0.141351222992, 0.049291979522, -0.151618525386, -0.015201942995, 0.157704353333, -0.054156213999, -0.016340624541, -0.002507840749, -0.059446249157, 0.014423673041, -0.002355267061, -0.160171404481, 0.068176880479, -0.035943090916, 0.033147968352, 0.053850844502, 0.070028625429, 0.064603015780, -0.049862299114, -0.149260833859, -0.101176582277, -0.079332537949, 0.000787617173, -0.017638850957, 0.138642370701, -0.035442784429, 0.072585538030, -0.024059919640, 0.076633900404, -0.080075271428, -0.033440787345, -0.002169877058, -0.054547607899, -0.058056380600, -0.031590815634, 0.097887784243, 0.143416315317, -0.206214800477, 0.012807239778, -0.180540859699, 0.115751467645, 0.094704978168, -0.227958723903, 0.016012452543, 0.066142223775, 0.058725528419, 0.094938501716, 0.171826809645, -0.139373436570, -0.069031275809, -0.167806342244, -0.095548689365, 0.129043802619, -0.008171416819, 0.055573392659, 0.050932712853, 0.078558616340, -0.128318712115, -0.084230594337, 0.069217815995, 0.059534993023, 0.099979892373, 0.144217044115, -0.021713228896, -0.042327754200, 0.004751044326, -0.006571043748, 0.011498341337, 0.051555350423, 0.151297003031, 0.130995824933, 0.161524355412, 0.051138836890, 0.059724692255, 0.031786065549, -0.005553788040, 0.033663082868, 0.118486247957, 0.121933504939, -0.027048032731, -0.047970708460, -0.035930793732, -0.148621693254, 0.110085420310, -0.108863607049, -0.142119824886, 0.206382960081, 0.056501396000, 0.113170824945, -0.165185704827, 0.051136448979, 0.084239445627, -0.194684252143, 0.057358883321, -0.038091100752, 0.045429576188, 0.020027916878, -0.002773001790, 0.018066700548, 0.078350640833, 0.107885822654, -0.128064408898, 0.061127234250, -0.198788866401, 0.114087909460, 0.085795998573, -0.002679765224, -0.107733026147, 0.040122807026, 0.061847846955, -0.072189435363, 0.091217815876, -0.222661927342, 0.068808719516, -0.009677794762, -0.005465189926, 0.194711595774, 0.103607974946, 0.050356991589, 0.036294810474, 0.039279188961, 0.090102575719, 0.063331030309, 0.114256285131, 0.103966914117, 0.205918610096, 0.063117548823, -0.098268151283, -0.108305364847, 0.088188692927, -0.080006211996, -0.164515435696, 0.150766327977, -0.066419690847, -0.033375788480, -0.022227773443, 0.078655317426, -0.069395512342, 0.007399719208, 0.014354718849, 0.003380485810, -0.058097191155, -0.014698452316, -0.057873114944, 0.069328151643, -0.015405121259, -0.060284439474, -0.064036920667, -0.053947493434, -0.122425280511, -0.028598468751, -0.085810482502, 0.048892769963, -0.009196981788, 0.080125115812, -0.052851635963, -0.069111540914, 0.046153951436, -0.205796837807, 0.004057375249, -0.015168215148, -0.076181456447, 0.092706419528, 0.119574412704, -0.078873656690, -0.088609665632, 0.030436761677, 0.004529335070, 0.004852530546, 0.001832565991, 0.110060513020, -0.036314129829, 0.094210147858, 0.018247282133, -0.097298778594, -0.088929407299, -0.108450047672, 0.021803608164, 0.139272138476, -0.066614940763, 0.109841607511, 0.156638234854, -0.005038280040, 0.025336332619, 0.059943459928, 0.014388714917, 0.016730744392, -0.100243575871, 0.104734659195, -0.033040724695, 0.088460117579, -0.049408867955, -0.053976368159, 0.020904196426, -0.163910195231, 0.006290159188, 0.047345671803, -0.009530639276, 0.066877171397, -0.036357961595, -0.014622824267, -0.028672691435, 0.062466684729, 0.073277145624, -0.002941026585, -0.047164492309, 0.029706943780, -0.029990874231, 0.092306166887, 0.051767647266, 0.068943269551, 0.033559236676, 0.099891796708, -0.093732714653, -0.008871275000, 0.056435510516, 0.002810770180, -0.084890387952, 0.014485809021, -0.002749263309, -0.065630540252, 0.035960722715, -0.064827360213, 0.012181377038, 0.046011827886, 0.085156165063, 0.133489802480, -0.029902273789, 0.091983072460, -0.173286139965, -0.032148253173, -0.110594131052, -0.134009271860, 0.054703898728, 0.027816109359, 0.001420165878, 0.148763328791, -0.024046391249, 0.010553177446, 0.059338495135, -0.168247133493, -0.034792728722, 0.025398146361, -0.098196625710, 0.192954778671, 0.101740859449, -0.010550330393, -0.097358331084, -0.000842695532, 0.009112318046, 0.029452133924, -0.010783787817, 0.091250404716, -0.006306681782, 0.087115980685, -0.030988540500, 0.029639998451, 0.087862029672, -0.194446295500, -0.057208281010, 0.101987794042, 0.084484443069, -0.046396441758, -0.095245130360, -0.011325404979, 0.016403520480, -0.070269986987, -0.120875701308, 0.186734810472, -0.014231083915, -0.089054092765, -0.031777448952, 0.062433905900, 0.060649883002, -0.173583388329, -0.147164598107, 0.079252816737, -0.031814124435, -0.104364305735, -0.128391996026, 0.174293324351, -0.133836776018, 0.056936372072, 0.022892495617, 0.009340145625, 0.012963126414, -0.038063865155, -0.091184452176, -0.059489056468, -0.055302791297, 0.006323849782, -0.109965071082, 0.035007908940, -0.120603382587, 0.099358581007, -0.063464485109, 0.076219439507, 0.169229090214, -0.014753562398, -0.125313326716, 0.050693359226, -0.112214289606, -0.054388333112, -0.101068004966, -0.176852747798, 0.109181061387, 0.053117267787, 0.089265555143, 0.182023823261, 0.030296308920, -0.070240035653, -0.024434240535, -0.072391666472, -0.000296776765, 0.056016776711, 0.134940773249, 0.114834845066, 0.174537345767, 0.094615660608, -0.055302266032, -0.213893339038, 0.262555956841, -0.292811691761, 0.083232901990, 0.003083745949, 0.072950221598, 0.106274805963, 0.180311143398, 0.166332364082, 0.096656858921, 0.031475692987, -0.020829757676, 0.047315802425, 0.027242530137, -0.106825783849, 0.115488305688, 0.067161269486, 0.161641687155, -0.133452862501, -0.155017763376, 0.006620288827, -0.091571062803, -0.096499979496, 0.031438607723, -0.008261810988, -0.012849524617, 0.020776027814, 0.099230878055, -0.050444912165, 0.052916973829, -0.406675487757, 0.169517278671, -0.069155827165, 0.129025816917, -0.013583604246, 0.040781281888, 0.009450777434, 0.047425784171, 0.067791350186, -0.188007339835, 0.063429795206, 0.079322271049, -0.053826488554, -0.116982355714, 0.049141127616, -0.061945609748, -0.000047705646, -0.163310632110, -0.175633326173, -0.048743419349, -0.022943403572, 0.135157361627, 0.137946262956, 0.083535954356, -0.139922887087, 0.052392698824, -0.058026388288, 0.161701053381, 0.044331829995, 0.143709987402, 0.063556134701, 0.190014764667, 0.142867505550, -0.024770105258, -0.351597160101, 0.097854875028, -0.196315959096, -0.022969244048, -0.059527814388, 0.071842707694, 0.111023716629, 0.017834164202, 0.176372751594, 0.018838886172, 0.213568463922, 0.122147418559, 0.193868905306, -0.132125541568, 0.018480222672, -0.058208823204, 0.135667920113, 0.079345896840, 0.081880636513, -0.075505815446, 0.103492878377, -0.142313584685, -0.158540964127, -0.041752789170, -0.058946356177, -0.032779157162, -0.017739592120, 0.088209822774, -0.047074045986, 0.044137477875, -0.458948373795, 0.189676433802, -0.167645737529, 0.066461838782, -0.017583657056, 0.051795307547, 0.107143029571, 0.106696933508, -0.073548443615, 0.028996692970, -0.152249798179, -0.000675881514, -0.045184705406, 0.119679600000, 0.036753941327, 0.034896772355, -0.058421578258, -0.083533100784, -0.047580458224, 0.100373707712, -0.035930447280, 0.002819866175, 0.059076532722, 0.070920191705, 0.040089108050, 0.102953881025, -0.069658383727, -0.003893319285, 0.061981443316, -0.048613026738, 0.143686637282, -0.002201422118, 0.014956131577, -0.034917227924, 0.090385660529, 0.010167442262, -0.129606336355, -0.091499730945, 0.043786060065, 0.098844975233, 0.019759183750, -0.004584504757, -0.056508220732, 0.037859961390, 0.014958251268, -0.004965182859, 0.175065442920, 0.042439144105, 0.099205292761, -0.041495490819, 0.041282452643, 0.050108037889, 0.003664484480, 0.035998053849, 0.242276847363, 0.056977517903, -0.002303937916, 0.156955912709, -0.033113542944, 0.075853466988, 0.020082650706, 0.001061587478, 0.086009927094, -0.130449473858, -0.069515846670, 0.041596781462, -0.052586644888, 0.071535192430, 0.068076260388, -0.036339275539, 0.207225888968, -0.032766755670, -0.039057612419, -0.078950673342, 0.107588723302, 0.004743135069, -0.163375973701, 0.091996625066, -0.001640600618, 0.090783856809, 0.131981685758, -0.001330249361, -0.037285473198, -0.085495203733, 0.094296783209, 0.006061291788, -0.055032454431, -0.092670902610, 0.207720965147, 0.046806961298, 0.064483180642, 0.083460025489, 0.058085136116, 0.040768772364, 0.037337031215, 0.039361987263, 0.056566126645, -0.079733237624, -0.048288699239, -0.035420604050, -0.053021240979, 0.098860830069, 0.044695679098, 0.227944537997, 0.115485355258, -0.081788308918, 0.004820325412, 0.043460182846, 0.001901693991, -0.101927086711, 0.046036724001, 0.043003059924, 0.059182532132, -0.036592002958, 0.076944291592, -0.060495741665, -0.075617589056, 0.046355076134, -0.027314532548, -0.096062660217, 0.045510407537, 0.043865602463, -0.032640948892, 0.008328007534, 0.026444591582, -0.063783265650, -0.101012058556, 0.004615801387, 0.034758891910, -0.008348340169, -0.031898736954, 0.065525770187, -0.043077949435, 0.055055074394, 0.000889093149, -0.154253765941, -0.007507316768, -0.039171859622, 0.066503919661, 0.021791379899, 0.071964129806, -0.114701680839, -0.059030074626, 0.010867932811, -0.075702473521, -0.046716753393, -0.127759292722, -0.059256859124, -0.017312347889, -0.081044197083, 0.061426267028, 0.073304936290, -0.018750745803, -0.019278503954, 0.140061616898, 0.068316288292, 0.047648239881, 0.041752468795, 0.037407584488, 0.035014100373, 0.033948101103, -0.071107782423, -0.050712037832, 0.170310541987, -0.136526122689, 0.060408093035, 0.063689678907, 0.117963328958, 0.152685508132, 0.049232829362, 0.031134972349, -0.006265172269, 0.042279753834, -0.026325369254, 0.054091088474, 0.008880931884, -0.058969736099, 0.094280384481, -0.004198461305, 0.143660709262, 0.050318103284, 0.020746998489, 0.057659242302, -0.095935337245, -0.125424697995, 0.007794544566, 0.061293456703, 0.027179330587, 0.126217409968, 0.056639701128, -0.068360514939, -0.018870797008, -0.128295958042, 0.143338397145, -0.052375826985, 0.007816030644, -0.038629025221, 0.088893152773, -0.050801977515, -0.031026467681, 0.004336155020, 0.062201105058, -0.011919022538, -0.028514785692, 0.111920014024, -0.022156622261, -0.016884686425, -0.040154021233, -0.036324124783, -0.040178555995, -0.009625983424, 0.129316449165, 0.027827972546, 0.004951786716, -0.027702858672, 0.038228251040, 0.033374238759, 0.039993211627, -0.073758214712, 0.119086481631, -0.086938112974, -0.001031117747, 0.026417061687, -0.092745818198, 0.020103588700, 0.070336662233, -0.076011769474, -0.103179804981, 0.011817471124, -0.103425897658, -0.004632201046, 0.084727376699, 0.075525216758, -0.132695674896, -0.005402347073, -0.083540767431, 0.054825242609, -0.018407078460, 0.008136851713, 0.012030624785, -0.033001799136, 0.013628704473, -0.027527995408, -0.099591590464, -0.053369510919, 0.040865086019, 0.107869081199, 0.010373909026, -0.059475094080, -0.010908845812, -0.085032574832, -0.000553162652, 0.138619646430, 0.028870111331, -0.013928467408, 0.052464310080, -0.084002479911, 0.083747215569, -0.000156542766, -0.018695816398, -0.011875204742, -0.097866363823, -0.028166847304, 0.000552806247, -0.096568860114, -0.119486294687, -0.161989822984, 0.086481288075, -0.072107389569, 0.053102873266, 0.046394638717, -0.049496140331, -0.082509405911, -0.210008129478, -0.155356422067, -0.007638668176, 0.035245049745, 0.022244798020, 0.046645402908, 0.215894982219, -0.003368627746, 0.050186321139, -0.060663692653, 0.055248696357, 0.105062574148, -0.059488549829, 0.147149190307, 0.014488944784, -0.010632151738, 0.038148865104, 0.080586008728, 0.165131717920, -0.182073161006, 0.013672547415, -0.003964275587, 0.084720075130, -0.046412374824, -0.015071464702, -0.048374153674, 0.115075550973, 0.077952474356, -0.019212536514, 0.181868121028, -0.011236420833, 0.031444087625, 0.126438632607, 0.158321902156, 0.151764079928, -0.065134838223, -0.015248465352, 0.052360475063, 0.018928620964, -0.027786901221, 0.115620613098, 0.114377446473, -0.129974842072, 0.038806226104, -0.003770725103, 0.110858827829, -0.015656135976, -0.063588246703, -0.073825016618, -0.050362128764, -0.090249657631, 0.069189406931, -0.084903076291, 0.042558882385, 0.072197087109, -0.071634188294, -0.058065179735, -0.037785124034, 0.112913608551, 0.006507356651, -0.115058898926, 0.041663989425, -0.054819539189, 0.087248854339, -0.177968889475, -0.178849667311, -0.107381783426, 0.010335274041, 0.113721691072, 0.025973886251, 0.029937574640, -0.081423066556, -0.015496662818, -0.025193149224, -0.035436909646, 0.088461034000, -0.026422940195, 0.129722565413, 0.294256716967, -0.089197382331, -0.157978162169, -0.259520798922, 0.156970009208, -0.318783044815, 0.140148326755, 0.095511339605, 0.079212591052, 0.077871136367, 0.037660162896, -0.026733355597, 0.174747332931, 0.158557504416, 0.162388384342, 0.014173546806, -0.152831032872, -0.034444417804, 0.055533621460, 0.151033952832, 0.144375100732, -0.048218898475, -0.007238314487, 0.104865483940, -0.055282913148, -0.090954333544, 0.011546728201, -0.108077831566, 0.079284317791, -0.011262954213, -0.040577575564, -0.051508475095, 0.124603658915, -0.518260240555, 0.028958855197, -0.109343297780, 0.047041200101, 0.129219144583, -0.007299510296, -0.031626988202, 0.045201756060, -0.007346610539, -0.124709002674, 0.036833740771, 0.122363172472, 0.132143244147, -0.100324295461, -0.027714716271, -0.106114007533, 0.078109912574, -0.210272639990, -0.264563947916, -0.003589861095, 0.057763557881, 0.117389723659, -0.072604194283, 0.030831981450, -0.067257955670, 0.091711692512, 0.051121775061, 0.058612205088, 0.111798465252, 0.085837014019, 0.223915308714, 0.185704812407, -0.058647692204, -0.056730449200, -0.231308847666, 0.184969156981, -0.205794587731, 0.073683910072, 0.008108614944, 0.089671671391, 0.022169847041, 0.095963016152, 0.078893177211, 0.033044710755, 0.097023040056, 0.140952721238, -0.038729567081, 0.031290337443, 0.009211758152, 0.075247950852, -0.036970790476, 0.018510567024, 0.105589427054, -0.040736161172, 0.072103522718, -0.032805722207, -0.247596591711, 0.014439184219, 0.049060106277, -0.038403622806, 0.094555124640, 0.032962162048, 0.097302027047, 0.147016078234, -0.413626492023, 0.041583430022, -0.177371993661, 0.194366335869, 0.018289580941, -0.114033386111, -0.095325417817, 0.043852545321, 0.053740829229, 0.054333746433, -0.136949315667, -0.080101959407, 0.098239734769, 0.090371705592, 0.106143213809, 0.013131605461, -0.055658958852, -0.149303063750, 0.042213536799, 0.129407376051, -0.030104750767, 0.098960585892, -0.082155577838, -0.012459144928, -0.014925920404, 0.098383247852, 0.002984342631, -0.064039915800, 0.085634283721, -0.123120911419, 0.058060899377, -0.139657974243, -0.003756881226, 0.054484013468, 0.037562269717, -0.052859272808, -0.054388601333, 0.050569694489, 0.071183204651, 0.076071612537, -0.118164084852, -0.036198273301, -0.147202059627, -0.101766943932, 0.062492128462, -0.074246942997, 0.112143270671, 0.055195197463, 0.029862888157, 0.045486576855, 0.052085507661, 0.130014836788, -0.064106576145, -0.070862188935, 0.028619633988, 0.034945908934, 0.052883293480, 0.049043856561, -0.008235908113, -0.141353100538, 0.181323722005, -0.001779736718, 0.046757686883, -0.114118203521, -0.115992307663, -0.128924489021, 0.029955880716, 0.027000481263, 0.021714927629, -0.052955646068, 0.132534131408, 0.241745546460, -0.000145361701, -0.041560366750, -0.140203103423, 0.047261543572, 0.110074169934, -0.026703085750, 0.051723618060, -0.031941562891, 0.029748935252, 0.026107739657, 0.028892552480, 0.065153062344, 0.092697665095, -0.088222146034, -0.123414337635, -0.038959771395, 0.119639776647, 0.144580513239, 0.098509870470, 0.067558281124, -0.079163707793, -0.066574826837, 0.126206636429, -0.009356319904, -0.136961668730, -0.113235116005, -0.067301481962, 0.135689005256, -0.015613726340, 0.152938127518, -0.113311089575, 0.066116899252, 0.118012152612, -0.002863344969, -0.027726227418, 0.099244266748, -0.012497000396, 0.086794398725, -0.054525550455, 0.127504512668, 0.054230973125, -0.059646572918, 0.053148284554, 0.018543008715, -0.076217338443, 0.066816657782, -0.053311515599, 0.097571544349, 0.039625987411, 0.143306553364, -0.132398203015, -0.128194987774, 0.045782756060, -0.190484672785, 0.016135273501, -0.030416863039, -0.084900140762, 0.076372496784, 0.045989967883, 0.096184901893, -0.041990485042, -0.077565483749, -0.029710127041, 0.114782117307, -0.046950306743, 0.087094753981, -0.040440373123, 0.004669447895, 0.001143212430, -0.097073130310, -0.014345975593, -0.044677384198, 0.079904466867, -0.119536802173, -0.003390006954, -0.002661816310, -0.008595596999, -0.032872259617, -0.012395033613, 0.029943075031, -0.009325963445, 0.122857913375, 0.068886242807, -0.084846183658, 0.074095606804, -0.036928709596, 0.159189254045, 0.115439347923, -0.112332619727, -0.041754655540, -0.030975030735, 0.091083206236, -0.113241672516, -0.070071846247, 0.092599175870, -0.057516176254, 0.102958209813, -0.156492099166, -0.071331217885, 0.117241345346, 0.099746055901, 0.043760102242, 0.059160523117, -0.131779789925, -0.078777134418, 0.004688855726, 0.021180612966, -0.058200541884, -0.046259336174, -0.097774036229, 0.106832645833, 0.091042533517, -0.041600327939, 0.105878517032, -0.011806009337, -0.066019892693, 0.037262473255, -0.072932340205, 0.105435788631, 0.057563982904, -0.243456631899, 0.008235311136, -0.047110538930, 0.095715813339, 0.004659861326, -0.037169568241, -0.080770604312, 0.147072389722, 0.117772012949, 0.196752414107, 0.019788334146, -0.116540037096, -0.020601501688, 0.031645849347, 0.001855880022, 0.075496427715, -0.012149121612, -0.057520601898, 0.056195881218, 0.128126785159, -0.043301831931, -0.046096131206, -0.064679808915, 0.079971246421, 0.053268060088, -0.016288176179, -0.048992943019, 0.032782029361, 0.021961538121, -0.114152893424, -0.084741465747, -0.142370119691, -0.004959389102, 0.007193078753, 0.147399142385, -0.217416316271, -0.076332941651, 0.044912923127, -0.007775058970, -0.149952977896, -0.020766517147, -0.136025264859, 0.033601686358, -0.059000283480, 0.043675888330, 0.064085938036, -0.117223903537, 0.144320532680, 0.065798565745, -0.003214215161, 0.027944223955, -0.042201504111, 0.068707160652, 0.098311826587, 0.082656592131, 0.024721628055, 0.014930654317, -0.051824290305, 0.136313214898, -0.047588005662, -0.019663838670, 0.054774507880, 0.010787449777, -0.108889110386, 0.007486259099, 0.003011371009, 0.067746222019, -0.043709583580, 0.070239119232, 0.000638501777, -0.062078122050, 0.158774271607, -0.090571478009, -0.012453510426, -0.114189483225, -0.089566022158, 0.102997183800, -0.014301775955, -0.016097497195, -0.013261669315, -0.166592925787, -0.075744450092, 0.065877459943, 0.159612074494, 0.115355461836, -0.034801401198, -0.034185558558, 0.179907605052, 0.001648468548, -0.029154166579, -0.083572804928, -0.113201066852, 0.090287052095, -0.072487838566, -0.049499932677, 0.060570765287, -0.155250653625, 0.078039534390, 0.010909619741, 0.022279657423, -0.101463958621, 0.043504007161, -0.035103615373, 0.009450636804, -0.057428780943, -0.054568089545, -0.153663918376, -0.032478202134, 0.034393072128, 0.044958658516, 0.099687352777, -0.080150499940, -0.013784305193, 0.062318474054, 0.054752696306, 0.208464339375, -0.152658641338, -0.092349819839, 0.098134592175, 0.057755175978, -0.075225859880, 0.036544382572, -0.092937193811, -0.091059461236, 0.091320306063, 0.003421267262, 0.106702722609, -0.091765902936, -0.030103346333, 0.040520291775, 0.001048038481, 0.040554445237, 0.008347216994, -0.177827149630, -0.080048948526, 0.221597582102, -0.049782849848, -0.035132907331, -0.055658418685, 0.012573527172, 0.004493718501, -0.195788919926, 0.035977948457, -0.119029298425, 0.037361759692, -0.234248131514, 0.007437375374, 0.101046815515, 0.062162522227, -0.066777572036, -0.092845320702, -0.048018068075, -0.007199403830, 0.158136680722, 0.058313898742, -0.043089486659, -0.024616146460, -0.044380523264, 0.135609999299, 0.173272863030, -0.106904886663, -0.144493997097, -0.102381065488, 0.084843449295, -0.286925911903, 0.071591213346, -0.047028828412, 0.022910382599, 0.134000271559, 0.006610995624, 0.046631205827, 0.019407594576, 0.098315343261, 0.075881943107, 0.049838200212, -0.167589277029, -0.069912150502, 0.011342634447, 0.228682413697, -0.003913345747, -0.011687925085, -0.098089627922, 0.129278138280, 0.031309783459, -0.100211948156, 0.095542661846, -0.011896217242, 0.001167323906, 0.014062065631, -0.077366650105, 0.105716459453, 0.144731178880, -0.404020994902, 0.080972038209, -0.002469613682, -0.032635819167, 0.098754473031, -0.010858811438, -0.050883259624, 0.125777900219, 0.052983157337, 0.115904293954, -0.145009532571, 0.137295737863, 0.067227683961, -0.077855519950, -0.036461792886, -0.105280190706, 0.107496365905, -0.147200897336, -0.005832364317, -0.110338404775, -0.028007708490, 0.127633780241, -0.105565465987, 0.105244420469, -0.081196561456, 0.093944117427, 0.064790859818, -0.040414124727, -0.016592886299, 0.002487371443, 0.017748823389, 0.083427667618, -0.098735079169, -0.132864236832, -0.076443642378, 0.188033282757, -0.197337567806, 0.078127168119, 0.021266398951, -0.024180324748, 0.078286215663, 0.050367936492, -0.155783742666, 0.047354560345, 0.129528358579, 0.095253467560, 0.066244892776, -0.047794986516, -0.151517078280, 0.208437979221, 0.030166596174, -0.163799077272, 0.080593757331, 0.008855307475, 0.171565741301, 0.068646639585, -0.209742888808, 0.092774488032, 0.062611758709, 0.007720293012, -0.023299096152, -0.068793229759, -0.062868908048, 0.151037812233, -0.198319733143, 0.058367986232, 0.005836604629, 0.031706687063, 0.020762678236, -0.023436767980, -0.059240147471, 0.184406176209, -0.062201876193, -0.020500892773, -0.117347240448, 0.091930493712, 0.066169373691, 0.003914218396, 0.013331277296, -0.139730021358, -0.054535698146, -0.080518014729, 0.029688242823, 0.161042913795, 0.061394561082, 0.078042678535, -0.118043929338, 0.182480528951, -0.026669366285, 0.060768131167, -0.094289734960, -0.092309266329, 0.001472475589, -0.098890908062, 0.094687797129, 0.001795037417, -0.127527177334, 0.087175950408, 0.149201080203, 0.044422313571, -0.048348493874, -0.058287836611, -0.060870241374, 0.066861748695, -0.171012997627, -0.161400616169, -0.118563972414, 0.059154089540, -0.035864572972, 0.109300732613, -0.046746257693, 0.047131288797, 0.064150154591, 0.078775532544, -0.019202021882, 0.089108899236, -0.054068133235, 0.116933360696, 0.083754658699, 0.067701302469, 0.083478525281, 0.030774224550, -0.111340217292, -0.017274694517, 0.188982993364, -0.037901636213, -0.001196505735, 0.006054139230, 0.037030249834, 0.005643167533, -0.027408495545, -0.067843154073, 0.054706711322, -0.047920051962, 0.107263207436, 0.231347337365, -0.027973003685, -0.024757990614, -0.125074490905, 0.089121110737, 0.085332587361, -0.023255845532, -0.033585313708, -0.121298067272, -0.069695480168, -0.087946660817, 0.028906494379, -0.038021136075, 0.104042321444, -0.136707231402, -0.052814368159, -0.040063731372, 0.006416013464, 0.169967561960, 0.189718306065, 0.044584631920, -0.107012286782, -0.042037151754, 0.182145446539, -0.038490723819, -0.130524232984, -0.170890003443, -0.095221981406, 0.156642049551, 0.095296442509, 0.201776370406, -0.146844834089, -0.002927671885, 0.045150049031, -0.081571921706, 0.076577991247, 0.187921285629, -0.043494813144, 0.136067956686, -0.003242244478, 0.078189328313, -0.067641764879, -0.015008877032, 0.002826314187, -0.146261483431, -0.163677781820, 0.008713158779, 0.059391360730, 0.195732697845, -0.018919603899, -0.057468459010, -0.051481828094, 0.020004723221, 0.098762437701, -0.216625735164, 0.080831743777, -0.014774374664, -0.149173244834, 0.156391814351, 0.052527133375, 0.176418527961, -0.029621776193, 0.040779013187, 0.024174924940, 0.084525719285, -0.013401689008, 0.028626454994, -0.185221880674, 0.014879096299, 0.222623765469, -0.047841347754, 0.020776944235, 0.005948812235, 0.085801519454, -0.029803363606, -0.064867280424, -0.012647426687, 0.047157816589, 0.128611132503, -0.022119639441, 0.071454770863, -0.009147395380, -0.027997417375, 0.078027024865, -0.041810624301, -0.092539042234, -0.085142046213, 0.116099037230, 0.049374107271, -0.200246587396, -0.033116456121, 0.014043772593, 0.155431494117, -0.069152958691, 0.143376082182, 0.023886255920, -0.025814943016, -0.039406109601, -0.053444426507, -0.021942771971, -0.034296281636, -0.040511131287, 0.106974005699, 0.037406373769, -0.057714331895, -0.189711272717, 0.083941765130, 0.065731398761, 0.011827923357, 0.008369935676, 0.064207077026, 0.060018923134, 0.001986287301, -0.000365620886, 0.032750308514, -0.070359930396, -0.008886585012, 0.034503683448, -0.182075068355, 0.196715876460, 0.107661843300, -0.139634311199, 0.022018887103, -0.137006998062, -0.027651201934, -0.010266565718, -0.014856882393, -0.071893416345, 0.067270092666, 0.101249441504, 0.124987803400, 0.121504463255, -0.114928223193, 0.113210014999, -0.093340218067, 0.057193439454, 0.213356778026, 0.022254288197, 0.168808072805, 0.178449615836, -0.087404862046, -0.090330347419, 0.087252415717, -0.004198513459, -0.067896954715, -0.036367382854, 0.011294916272, -0.179187342525, -0.059279173613, -0.122834928334, 0.040292527527, 0.124177999794, -0.030539814383, -0.017380695790, 0.062677167356, 0.207758292556, -0.106854453683, 0.131327748299, -0.015462924726, -0.018403047696, -0.159479424357, -0.053921755403, -0.037380989641, 0.005809913855, -0.083534896374, 0.000194564884, -0.116113997996, -0.078680470586, 0.188866347075, -0.049237065017, 0.004158736207, -0.105967327952, -0.000524292467, -0.024472530931, 0.166215166450, -0.002890369389, 0.088105641305, 0.095167301595, -0.025249170139, 0.144645929337, -0.056178458035, 0.035845261067, 0.087434560061, -0.001078421250, -0.063503198326, 0.043630320579, -0.045864153653, -0.036903068423, -0.012716520578, -0.050888538361, -0.070040263236, -0.028699051589, 0.084073774517, 0.039427988231, -0.056551147252, -0.121206283569, -0.091818302870, 0.071178875864, -0.153650298715, 0.029771948233, -0.112084671855, -0.079580068588, -0.081094242632, 0.048504080623, 0.134086295962, 0.040178749710, 0.002276581479, 0.004015451763, 0.071780540049, 0.100016653538, 0.005047390237, -0.151432946324, -0.036584310234, 0.078294388950, -0.054447390139, 0.089944958687, -0.043713852763, -0.223188653588, -0.093090936542, 0.055057503283, 0.068022817373, -0.046610575169, -0.058753099293, 0.000216024753, 0.029145995155, 0.032722748816, -0.090157851577, -0.061300873756, 0.010128986090, -0.010519072413, 0.047166526318, 0.122276239097, 0.017919916660, -0.003654708154, 0.063893519342, -0.034718386829, 0.028292717412, -0.130006745458, 0.091995127499, -0.079877585173, 0.155984342098, 0.037310417742, 0.038109965622, 0.007405878045, 0.009393355809, 0.120709858835, -0.056809298694, 0.167118415236, 0.075655065477, -0.049206282943, -0.024910513312, 0.061918456107, 0.027877703309, -0.003185885958, -0.093275517225, -0.049420811236, 0.121161468327, 0.087335228920, 0.002559500281, -0.138869017363, -0.030563244596, 0.056091304868, -0.103789389133, 0.060138259083, -0.025579595938, 0.118821538985, 0.008900011890, 0.038823343813, 0.058666113764, 0.106629751623, 0.098573446274, 0.012256028131, -0.025766819715, -0.138179168105, 0.072751164436, -0.178879693151, -0.050868824124, 0.043587133288, 0.092018514872, 0.038276735693, 0.068816728890, -0.172948360443, -0.085068203509, -0.155938282609, 0.133387312293, -0.036261737347, 0.138120725751, 0.113018855453, -0.010378222913, -0.036399599165, -0.087539799511, -0.053036671132, 0.178323686123, 0.097220629454, 0.005554888863, 0.136312872171, -0.104480467737, -0.370406270027, 0.073515854776, 0.007122196257, 0.074820950627, -0.025703581050, -0.029590506107, -0.076924800873, 0.097064584494, 0.016342939809, -0.013526699506, -0.072491586208, -0.127278029919, -0.045830029994, -0.058092657477, 0.083179935813, 0.048136558384, -0.314597398043, -0.031029822305, -0.154478102922, 0.057968210429, 0.217250034213, -0.061517901719, 0.031302385032, 0.009365443140, 0.025818467140, 0.055605813861, 0.024239949882, -0.045816566795, 0.068313479424, -0.212132573128, 0.032559342682, 0.075488135219, -0.095623038709, -0.088075868785, 0.058854002506, -0.012798238546, 0.076928973198, 0.037906352431, -0.007921962067, -0.064290136099, -0.120559304953, -0.009480312467, -0.080845624208, 0.045254398137, -0.091677427292, 0.138658136129, -0.004237949383, -0.030793374404, -0.185288310051, -0.025545209646, 0.062406543642, 0.065356738865, -0.064218670130, 0.107514478266, 0.144908964634, -0.075499527156, 0.036242358387, -0.024825705215, -0.087616153061, 0.122272998095, -0.016376420856, -0.076379276812, 0.061462860554, -0.070715598762, -0.343170583248, 0.081646636128, -0.027020948008, 0.131094962358, 0.074548155069, 0.043651524931, 0.012064297684, 0.009223548695, -0.038059759885, 0.035034235567, 0.032487664372, -0.115440070629, -0.180655762553, 0.045149195939, 0.043935999274, 0.167249396443, -0.270245075226, 0.053122688085, 0.023810904473, -0.018267182633, 0.064590409398, -0.112112373114, -0.059172406793, 0.033069983125, -0.077646188438, -0.153455197811, -0.066304519773, -0.031842757016, 0.002551694633, -0.034114923328, 0.052609879524, -0.126410037279, -0.130531951785, 0.000419441698, 0.128445371985, 0.126446262002, 0.059524051845, -0.122136592865, -0.149433106184, 0.102624356747, -0.004956585355, -0.163520067930, -0.205959737301, -0.055827524513, 0.025095548481, -0.104499518871, 0.085890062153, 0.040922742337, -0.141903385520, -0.116877675056, 0.197163835168, 0.010943993926, 0.080568090081, -0.020145056769, -0.043589495122, -0.072615668178, 0.038071233779, -0.084288366139, -0.030088379979, 0.071439117193, 0.079491741955, -0.086109139025, 0.084708459675, 0.096108965576, 0.002261991613, -0.069635905325, 0.049850981683, 0.071473121643, -0.138974115252, 0.180649980903, -0.070726938546, 0.145387306809, -0.054401911795, 0.046444393694, 0.010454647243, -0.209610998631, 0.208039805293, 0.048675157130, 0.100354187191, -0.144536614418, 0.002293353667, 0.071781970561, -0.018580971286, 0.061976104975, -0.054087813944, -0.042247597128, 0.012730502523, 0.226289868355, 0.032739270478, -0.220541745424, -0.121033549309, 0.067112982273, 0.229193046689, -0.091021411121, -0.007053725421, -0.135712206364, -0.138474196196, -0.063918262720, -0.054957441986, 0.104620315135, 0.043839249760, 0.006227001082, 0.029044520110, -0.038186751306, -0.119205668569, 0.069749362767, -0.250395029783, -0.070286750793, -0.085181452334, -0.089504949749, 0.206198975444, 0.006054074969, -0.061113890260, 0.013091729954, -0.101614125073, 0.132412701845, 0.032024826854, 0.106611140072, 0.074333518744, 0.038765389472, 0.086668714881, -0.027753584087, 0.058200869709, 0.139614269137, 0.064896233380, 0.134475246072, -0.178692936897, 0.038769204170, -0.045361101627, -0.063690625131, -0.092516690493, -0.050644271076, -0.050721723586, 0.132703632116, -0.181630015373, 0.233030244708, -0.193375095725, 0.033021308482, -0.050152733922, 0.057910330594, 0.168427348137, -0.229934290051, 0.078263789415, 0.017975116149, -0.112410128117, 0.027180096135, 0.045970741659, -0.029935384169, -0.030544368550, 0.060816984624, -0.120745241642, 0.083617120981, 0.035749364644, -0.037940926850, -0.037440031767, 0.095631018281, 0.138106793165, -0.176290169358, -0.026179190725, 0.017779611051, -0.149965122342, -0.019117161632, 0.006720414385, 0.167926698923, 0.023134304211, 0.054136298597, -0.060750387609, 0.017940457910, 0.028504561633, -0.030879570171, -0.257695227861, -0.052507057786, 0.052276439965, -0.032055400312, 0.077108472586, 0.116644144058, -0.095590777695, -0.107714302838, -0.079912081361, 0.061147887260, -0.086776874959, 0.006907286122, 0.029954889789, 0.054596588016, -0.037544663996, -0.154981896281, 0.007239520550, -0.052679363638, 0.141430333257, -0.051170818508, -0.058837462217, -0.047197032720, -0.256876111031, 0.102582089603, 0.097795985639, 0.008304636925, 0.033495437354, -0.001460695523, -0.041593108326, 0.196251273155, -0.039172455668, -0.026245744899, 0.047132391483, -0.052206441760, 0.054946996272, -0.099540263414, 0.111020840704, 0.042267389596, -0.105019755661, -0.039193347096, -0.055251084268, -0.024085892364, -0.022645192221, -0.109151065350, -0.168635636568, -0.092904411256, 0.178911164403, 0.110574901104, -0.052007615566, -0.060217045248, 0.000381054677, -0.064057260752, 0.090283222497, 0.002371700481, -0.121799848974, 0.165425270796, 0.192350372672, -0.042647901922, -0.108807913959, 0.035335239023, 0.011058385484, -0.034282602370, 0.061054892838, 0.059530060738, -0.288039803505, -0.102525576949, -0.060225758702, 0.058174088597, 0.034820083529, 0.101656325161, 0.151177942753, -0.097226761281, 0.128371223807, -0.209564715624, 0.189466744661, 0.032947339118, -0.015769792721, -0.059941399843, -0.120573431253, 0.004909280222, -0.017247578129, -0.085646003485, 0.153006851673, -0.097627013922, -0.151720851660, 0.020827112719, -0.018113074824, 0.089688606560, 0.062889672816, 0.073401771486, -0.019268212840, 0.073909007013, -0.048756100237, 0.010132059455, 0.116487853229, -0.178215488791, 0.199071273208, -0.042576856911, 0.038989823312, 0.246406719089, -0.015335686505, -0.095156162977, 0.056309193373, 0.103753022850, 0.030370546505, 0.119402565062, -0.082662388682, -0.055020213127, -0.162300199270, -0.119873568416, 0.113673187792, -0.023892367259, -0.125061213970, -0.004415108357, 0.133154615760, -0.127267643809, -0.066666558385, -0.187903329730, -0.190824061632, -0.130599826574, -0.018794871867, 0.206100374460, 0.070958770812, -0.083060838282, -0.085125073791, 0.095985926688, -0.092589512467, -0.029795421287, -0.083681762218, -0.133306056261, 0.067775793374, -0.148310825229, 0.024966020137, 0.161065459251, -0.101617559791, -0.168827831745, 0.022260686383, -0.119295470417, 0.065229922533, 0.008640374988, -0.163565292954, -0.025442313403, 0.032975628972, -0.183437511325, -0.084491305053, -0.064147956669, 0.044385891408, -0.095284208655, 0.102917388082, 0.025337027386, -0.205978021026, -0.023917898536, 0.003045018064, 0.073027707636, -0.100781135261, 0.136211112142, 0.056647926569, 0.095113933086, -0.074044346809, 0.165593773127, -0.056299295276, -0.174483582377, 0.276128888130, 0.096981912851, -0.003121496411, -0.012160315178, 0.006162208039, 0.112341836095, 0.034484218806, -0.141163945198, -0.000157422299, 0.055378690362, -0.239901661873, -0.000937803998, 0.042679846287, -0.042830597609, 0.149857103825, -0.192572861910, 0.039060607553, -0.217597007751, -0.008975990117, 0.030633479357, -0.055497780442, 0.101492322981, 0.105432182550, -0.008679637685, -0.028895875439, 0.041970890015, 0.140471458435, 0.087347358465, -0.112654685974, -0.081413090229, -0.399355828762, -0.058141853660, 0.137757495046, 0.145059391856, -0.019813682884, 0.063897624612, 0.007240497507, 0.078077584505, 0.009424998425, -0.106066368520, -0.049190353602, -0.035949703306, -0.010579966009, -0.104609973729, 0.038645852357, -0.081021949649, -0.077817469835, -0.047166619450, 0.004694081377, -0.099254019558, 0.064829185605, 0.247885808349, -0.341081470251, 0.148176893592, -0.149150386453, 0.083424367011, -0.124062038958, 0.180298790336, -0.080692790449, 0.047474574298, 0.005292918999, 0.021482359618, 0.161412373185, -0.073575630784, -0.172064572573, 0.173612445593, 0.073260016739, -0.027829645202, -0.135314911604, -0.097979761660, 0.032715383917, -0.299376010895, 0.108472116292, -0.034828893840, -0.152378201485, -0.223822221160, -0.072854086757, 0.049025077373, 0.226851060987, -0.068558730185, -0.271432220936, -0.230557546020, 0.238414943218, 0.227204218507, -0.099747866392, 0.298551470041, 0.357824087143, 0.148237347603, -0.243951410055, 0.241797238588, 0.151887461543, 0.049443848431, 0.005239385646, 0.071287162602, -0.349840074778, -0.151496872306, 0.204688206315, 0.274566620588, 0.131671726704, -0.104743182659, 0.022871138528, -0.034516450018, 0.042061537504, -0.124650001526, 0.089981801808, -0.182714417577, 0.199554339051, -0.212331518531, 0.002926509827, -0.087043747306, 0.014615886845, -0.044042266905, 0.043195731938, -0.152156412601, -0.050781335682, 0.274212151766, -0.263933062553, 0.315684825182, 0.093668676913, 0.180315032601, -0.003033168148, -0.004692406859, -0.014727630652, 0.055825076997, 0.243742361665, -0.231961548328, 0.189233258367, -0.074955776334, -0.226564899087, 0.394398272038, -0.087103590369, 0.144000560045, -0.153307795525, -0.249438419938, -0.060804992914, -0.211899831891, 0.424185693264, 0.032420296222, 0.008273504674, -0.129922240973, -0.071678698063, 0.043643843383, 0.009997919202, 0.142505690455, -0.062746897340, -0.105494439602, 0.001184949651, -0.067819379270, -0.096940211952, -0.088556863368, 0.216958940029, -0.001219007769, 0.050860039890, -0.105524189770, 0.034448213875, -0.001208804315, -0.000286809285, -0.041620962322, -0.035645842552, -0.011880709790, -0.010672959499, 0.113773420453, -0.017019392923, 0.053545165807, 0.034154273570, 0.088843770325, 0.045052167028, -0.077814094722, 0.050105955452, -0.003062292468, -0.014062642120, -0.225774273276, -0.206720769405, 0.171400994062, 0.069132171571, -0.000656774733, 0.019006123766, -0.035277869552, 0.000037073391, 0.163123413920, -0.088884785771, -0.191100567579, 0.011880629696, 0.016467643902, -0.007498128805, 0.196626842022, 0.110589362681, -0.309042781591, 0.005659562070, -0.013293286785, 0.064877636731, -0.038596667349, -0.105714239180, 0.094652988017, 0.018831722438, 0.003865183098, 0.043085236102, -0.086763180792, 0.127450570464, -0.051358312368, 0.200162738562, -0.010779484175, -0.006577254273, -0.086101286113, -0.055741488934, 0.095070891082, 0.011803274974, -0.019275385886, -0.239296078682, -0.048933487386, -0.035577937961, -0.020023746416, -0.056464366615, 0.048536237329, 0.270724862814, -0.046785701066, -0.048476357013, 0.039312630892, 0.014185081236, -0.014931095764, -0.030788619071, 0.085185483098, -0.045213595033, -0.035560067743, 0.039467696100, -0.063214287162, -0.031121574342, -0.020814914256, -0.054798413068, -0.063712336123, 0.154686585069, -0.112391240895, 0.075606666505, -0.103927440941, 0.035907041281, 0.015278206207, -0.088310346007, 0.092126496136, 0.041543815285, 0.066741667688, 0.052394855767, 0.055953908712, 0.048735618591, 0.151629731059, -0.050920896232, -0.101399347186, -0.118735373020, -0.042416561395, 0.013659249991, 0.290664196014, 0.035014670342, -0.258090764284, 0.201382309198, -0.065606266260, -0.045670293272, -0.043763268739, -0.095007501543, -0.029206108302, -0.045578040183, 0.075767092407, 0.053448930383, 0.071903504431, -0.076042629778, 0.066694922745, 0.057741701603, 0.022828921676, -0.255897134542, -0.232100427151, 0.007074320689, 0.143657177687, 0.002765441081, 0.134344488382, -0.160118594766, -0.097738869488, -0.131753787398, 0.030846813694, -0.091772146523, -0.075029447675, 0.316487938166, 0.219412371516, -0.041081614792, -0.021694181487, 0.099022567272, 0.086330644786, -0.059304472059, 0.139492198825, -0.075542815030, 0.025137756020, -0.002171671716, 0.057867486030, -0.047990143299, 0.012924015522, -0.044942483306, -0.049643404782, -0.043007738888, -0.133251011372, 0.246734291315, 0.014478242025, -0.119702219963, -0.161508008838, -0.200181290507, -0.038698650897, -0.000438538846, 0.076420731843, 0.116611614823, -0.089739777148, -0.020765172318, 0.227899521589, -0.014557682909, -0.079000115395, -0.003615170484, 0.000314831152, -0.012958513573, 0.280927300453, 0.034612372518, -0.365075379610, 0.225335359573, -0.033278696239, 0.105453833938, 0.001505790395, -0.015159095638, 0.038080614060, 0.085672937334, 0.115837603807, 0.004911742173, -0.023703601211, -0.051032077521, -0.086684711277, 0.195604190230, -0.075206391513, -0.094581663609, -0.092230267823, 0.031306233257, 0.038252111524, -0.019814617932, 0.242658361793, 0.061537332833, -0.097642198205, -0.073093101382, -0.006974058226, -0.079880356789, -0.152152776718, 0.139400810003, -0.039609648287, 0.062818221748, -0.045247554779, 0.061829350889, -0.014100014232, 0.028006149456, 0.023055261001, -0.047305248678, -0.020727476105, -0.060868468136, -0.046315040439, -0.005425483454, 0.138223543763, -0.142724961042, 0.102715976536, 0.049286298454, 0.059839069843, -0.033260621130, -0.136600449681, 0.073717243969, -0.101448625326, -0.131999671459, 0.138276696205, -0.002084180713, -0.033661540598, 0.031311180443, 0.027934275568, -0.013667327352, -0.002514718100, -0.058843664825, -0.104599073529, 0.039266239852, 0.081294678152, -0.015644308180, 0.120398730040, 0.002842962276, -0.020241141319, 0.000487675163, -0.081039443612, -0.100063480437, 0.115522287786, -0.008951238357, 0.059429004788, 0.074592858553, 0.002665278036, -0.153809353709, 0.060882244259, 0.107567526400, 0.082418560982, 0.250617593527, 0.071381457150, -0.155425235629, -0.150371432304, 0.044999338686, 0.005390218459, 0.040763333440, 0.168138831854, 0.042412344366, -0.152964234352, -0.018565708771, 0.017804633826, -0.188374847174, -0.096707075834, 0.172304019332, 0.174838453531, -0.014734644443, -0.049510367215, 0.062384039164, 0.080610476434, -0.082732707262, 0.038438506424, 0.030812166631, 0.012994576246, -0.016491925344, 0.032245900482, -0.002934207441, -0.034800413996, -0.058424469084, 0.052671093494, -0.075219549239, -0.127991840243, 0.152237266302, -0.108525559306, 0.045187130570, -0.014866020530, 0.005996190012, 0.109752975404, -0.055759932846, -0.076295450330, 0.037094481289, -0.057672005147, 0.026267576963, 0.125372841954, -0.049110867083, -0.042608950287, 0.034496914595, 0.045593649149, -0.070867374539, 0.193049520254, 0.111498661339, -0.133298933506, -0.047825817019, -0.050028618425, -0.025326976553, -0.037819966674, 0.004141834099, 0.066123075783, 0.154280051589, 0.117581069469, -0.056442987174, -0.054086703807, -0.045438658446, -0.098293930292, 0.074715979397, -0.094062037766, -0.116484098136, -0.174013540149, 0.081621050835, 0.050295911729, -0.048105474561, 0.028946572915, -0.171889051795, 0.038384158164, 0.003560601734, 0.075361713767, -0.005480102729, -0.035832520574, 0.144574120641, -0.078654803336, -0.133675068617, 0.046618107706, 0.113223522902, -0.025566508994, -0.279495090246, -0.066645540297, 0.000621471379, 0.174135178328, 0.200983449817, -0.006115025375, 0.131531476974, 0.181932479143, -0.047499090433, -0.250596761703, 0.086161591113, 0.106510415673, -0.125259250402, -0.093829818070, 0.060707107186, -0.096329711378, 0.141565665603, -0.066945426166, 0.023029580712, -0.062558330595, 0.050788298249, 0.014398202300, 0.037902515382, -0.024411147460, 0.083897218108, 0.054987374693, -0.127408981323, 0.072327241302, -0.208692073822, 0.036341112107, 0.035639490932, -0.261301875114, -0.095140673220, -0.090796336532, 0.128066092730, 0.153704345226, -0.016226647422, 0.238025754690, -0.111740022898, 0.145980641246, -0.172761023045, 0.142774060369, -0.188214987516, -0.008752735332, -0.088655143976, -0.061133958399, 0.070729576051, -0.110491581261, -0.094688415527, -0.153566285968, 0.033253006637, -0.075987443328, -0.025749802589, 0.045124616474, 0.038514301181, 0.069927066565, 0.030873667449, -0.039376523346, 0.160472393036, 0.016439106315, -0.060463566333, -0.006160217803, 0.380321115255, -0.015876699239, -0.272142976522, -0.068749539554, 0.005425106734, 0.208104521036, 0.277392596006, -0.008061883971, 0.018369197845, 0.324324458838, 0.018668888137, -0.398269802332, -0.035643432289, 0.351795464754, -0.297357857227, -0.042506281286, 0.218626111746, -0.111841805279, 0.290384888649, -0.027774417773, -0.049416787922, 0.060652017593, 0.002592722652, 0.051293428987, 0.181552499533, -0.161217138171, 0.135468959808, 0.093616195023, -0.103834569454, 0.148106917739, -0.194862917066, 0.134925901890, 0.004609065130, -0.280958354473, -0.093209370971, -0.166290178895, 0.247892215848, 0.124724946916, 0.017959997058, 0.264239609241, -0.154178395867, -0.035923216492, -0.258185982704, 0.324578821659, -0.062772966921, -0.091987900436, -0.065416984260, 0.061728078872, 0.027382915840, -0.115730285645, 0.122798144817, 0.067114189267, 0.052693247795, 0.110515199602, 0.096844755113, -0.103817924857, 0.015132932924, -0.073273129761, -0.173593342304, -0.018759461120, -0.056496255100, 0.032123029232, -0.065381430089, -0.077850833535, -0.031530570239, 0.022251676768, -0.035757586360, 0.125336974859, 0.042169455439, 0.066516421735, 0.008634806611, -0.064119808376, 0.042509429157, 0.040540624410, 0.033230509609, -0.023228224367, 0.107969865203, -0.103381395340, -0.028239380568, -0.063942335546, -0.032992810011, -0.018157470971, -0.007368837483, 0.056556310505, -0.056945595890, 0.075593478978, 0.085528448224, -0.009023734368, 0.121429286897, -0.027438929304, 0.014555932954, -0.075989782810, 0.076367609203, 0.102143831551, 0.022798294201, -0.001168274553, 0.038276828825, -0.102973207831, 0.028339937329, -0.130137354136, 0.068007923663, 0.119632773101, -0.016036158428, 0.119463503361, -0.085545912385, -0.003796684556, 0.036999318749, 0.008390725590, 0.123185589910, 0.004957945086, 0.062195304781, -0.120375297964, -0.013434061781, -0.070228017867, 0.099263243377, -0.028228228912, -0.025550756603, 0.028019405901, -0.138876304030, -0.117239668965, 0.081542462111, 0.006493648514, -0.010256731883, 0.067160367966, -0.019310370088, -0.062058269978, 0.010071666911, -0.137519761920, -0.019349535927, -0.082255378366, 0.015171893872, 0.172009378672, 0.040929611772, -0.011764297262, -0.104335926473, 0.044231254607, 0.158123552799, -0.025490501896, 0.153169751167, -0.111025266349, 0.145536303520, -0.071272075176, 0.007672111038, -0.031467698514, -0.002001896268, 0.114921934903, 0.036533575505, 0.061468586326, 0.137015089393, 0.054523546249, 0.007295603398, -0.141589611769, -0.039882998914, 0.121410802007, -0.001551679801, 0.055397670716, -0.073796056211, -0.023863777518, -0.040345072746, -0.004696000833, 0.002448278712, 0.046749204397, 0.239340677857, -0.153329819441, 0.172312036157, -0.218560591340, 0.049049597234, -0.121398530900, 0.063322275877, 0.100422717631, 0.056950215250, 0.116647161543, -0.076274752617, -0.005904227961, -0.041869487613, 0.013931629248, -0.183464840055, -0.131254881620, -0.002823128132, 0.072632327676, -0.030387615785, 0.031449303031, -0.086313590407, -0.078467018902, 0.017789104953, 0.084956429899, -0.186660140753, 0.052881501615, 0.127405315638, -0.100031927228, -0.016445558518, -0.055467341095, 0.035255290568, -0.108278810978, 0.046418577433, 0.021316982806, 0.064482830465, -0.075921699405, 0.106170088053, -0.036546345800, -0.022899881005, 0.115366853774, 0.037096358836, -0.116162858903, 0.093667134643, -0.179530173540, 0.113817788661, -0.057515870780, 0.041171144694, -0.004185019527, 0.004907054361, 0.004173635039, 0.005875812843, 0.114472642541, 0.076318956912, -0.135960549116, -0.019372636452, 0.061281271279, -0.055279597640, -0.162518277764, -0.120272226632, -0.074714526534, 0.074547156692, 0.119778499007, 0.174339532852, -0.156467437744, 0.047421935946, -0.110621824861, 0.106783360243, 0.037184514105, -0.067116975784, 0.021862437949, -0.068560563028, 0.211857616901, -0.064573548734, 0.169079720974, -0.106907255948, -0.053944837302, 0.031661614776, -0.017988361418, 0.002779616974, 0.026701863855, -0.035891104490, 0.075159937143, 0.006246202625, -0.082265466452, 0.063410535455, -0.014645401388, -0.073705084622, -0.139595821500, -0.021212417632, 0.050765536726, 0.006582574919, 0.014660740271, 0.099794901907, 0.113232754171, -0.012968231924, 0.183916106820, -0.053551808000, -0.027052797377, 0.068172156811, 0.102720916271, 0.048020575196, -0.111817888916, 0.021728303283, -0.067272260785, 0.000109687928, 0.075241059065, -0.072255574167, -0.110225029290, -0.029403639957, -0.009556720033, -0.012605043128, -0.148656293750, 0.069295994937, 0.019967857748, 0.102782644331, 0.001328150276, 0.104536548257, -0.010217129253, 0.011889182031, -0.104794986546, -0.082368880510, 0.013115660287, 0.145086422563, -0.042653720826, 0.121597014368, -0.036274369806, 0.061557125300, 0.203779846430, -0.113922148943, -0.157012805343, 0.023772170767, 0.064545884728, 0.008828091435, -0.003652709769, 0.139260843396, -0.137812077999, 0.047802679241, 0.071469098330, 0.037847623229, 0.043790522963, 0.133685722947, -0.132138714194, 0.083357907832, -0.116997413337, -0.020537832752, -0.088205412030, -0.014445208013, -0.000359079480, -0.013940054923, 0.042761638761, 0.038579430431, -0.102053053677, -0.107372358441, -0.030197678134, 0.041642624885, -0.029383856803, 0.012275242247, -0.095653504133, 0.047673441470, 0.041471526027, 0.001793299103, -0.015225397423, -0.182618007064, -0.077007323503, 0.062116980553, 0.054012622684, 0.080206938088, 0.019878054038, 0.047759745270, -0.088605776429, 0.026954578236, 0.023729378358, -0.026678889990, -0.029618464410, 0.143307536840, -0.015225844458, -0.048261340708, 0.074922293425, -0.021245654672, 0.024014430121, 0.096293076873, -0.058283586055, 0.046889826655, 0.078637272120, -0.031714633107, -0.004276244901, 0.085899643600, 0.108046591282, -0.034058421850, 0.016092916951, 0.177473485470, 0.050092335790, -0.106614850461, -0.086029395461, 0.140959396958, -0.052471108735, -0.099545396864, 0.022703422233, -0.085976175964, 0.077137582004, -0.046575710177, -0.123231589794, -0.083174198866, 0.098778180778, 0.133723095059, 0.019132750109, -0.144616350532, -0.116379939020, 0.088108472526, -0.103064842522, 0.084425419569, 0.155514895916, 0.046803869307, -0.155289292336, 0.052242703736, -0.025495430455, -0.026466678828, -0.028467280790, -0.035325169563, -0.092761300504, 0.015906494111, 0.140315473080, 0.173368096352, 0.003289137036, -0.042619131505, 0.015049599111, -0.131876587868, 0.122126467526, 0.059600714594, -0.058419797570, 0.100807994604, 0.167016327381, -0.003552128561, -0.115900792181, 0.045863296837, 0.136955142021, -0.191301792860, -0.122789293528, 0.160035774112, -0.018817435950, 0.153816774487, -0.076018169522, -0.008096224628, 0.029497299343, 0.063560731709, -0.103891596198, 0.006718181074, -0.099132917821, -0.077547691762, 0.005228227004, -0.016714081168, 0.076605729759, -0.090924441814, 0.053771868348, -0.029432389885, -0.220516830683, -0.134192302823, -0.031296465546, 0.147606104612, 0.003704879200, -0.033470112830, -0.005385573022, -0.117962047458, 0.141398474574, -0.251668423414, 0.140696167946, -0.122753106058, -0.052122887224, 0.051881443709, -0.010634039529, -0.055014949292, -0.185779690742, 0.044413462281, 0.040098011494, 0.092410333455, 0.026872821152, 0.042357720435, -0.224374517798, 0.028756042942, -0.064375646412, -0.126334488392, -0.153058752418, -0.181030362844, 0.053478289396, -0.036167088896, 0.039556577802, 0.358381748199, 0.041552837938, -0.035695109516, -0.125476345420, 0.018331533298, 0.085685245693, 0.125467598438, 0.005654861219, 0.005456108600, 0.267038732767, -0.125603735447, -0.165489524603, -0.065521456301, 0.304718524218, -0.375758767128, -0.098133042455, 0.157495006919, -0.194665387273, 0.208685189486, 0.019692169502, 0.054809689522, 0.039953015745, 0.113592438400, 0.068978607655, 0.050753079355, -0.048977542669, -0.031273718923, 0.005720825400, -0.019612414762, 0.006389918271, -0.090134054422, -0.025785205886, 0.054418977350, -0.115325301886, -0.210928767920, -0.160119771957, 0.042154196650, 0.077147506177, 0.174535498023, 0.069991193712, -0.096533894539, 0.040826905519, -0.272441118956, 0.139063060284, -0.036590836942, 0.058257408440, 0.021094920114, -0.120116308331, 0.049443602562, -0.017430666834, -0.020671723410, -0.142877489328, -0.101173251867, -0.114079155028, -0.034792020917, 0.034700885415, -0.023035153747, -0.000166597543, -0.075658686459, 0.057256598026, -0.086896084249, -0.022882279009, 0.014032253996, -0.023893257603, 0.052956584841, 0.165134027600, -0.028395615518, 0.097860604525, -0.019550336525, -0.029980132356, 0.024460203946, -0.064845152199, 0.019359100610, -0.023314379156, 0.029410814866, 0.002778885653, 0.054587423801, -0.082569383085, -0.104190826416, 0.000546911557, 0.139519333839, -0.080095358193, -0.090377762914, 0.049239486456, 0.072558499873, -0.030617453158, 0.043782293797, -0.178884863853, 0.113364726305, 0.044955689460, -0.052364677191, -0.027597263455, 0.042743619531, 0.011505800299, -0.039672512561, -0.065390259027, -0.030373021960, -0.087590456009, -0.069509953260, 0.023489776999, 0.198057204485, 0.057232029736, -0.063440598547, 0.059794221073, -0.074617050588, -0.044838793576, 0.073345966637, -0.027033988386, -0.155252590775, 0.055639758706, 0.010924878530, -0.022841123864, 0.054965812713, -0.095266990364, -0.158868849277, -0.183047413826, -0.119570478797, -0.006957093254, -0.179621830583, -0.003726745956, -0.014286050573, -0.044809587300, -0.028112318367, 0.093346506357, -0.035466715693, -0.074782013893, -0.202696412802, -0.187072291970, 0.129933729768, -0.080639250576, 0.094114772975, -0.003671195125, 0.139741554856, -0.158547461033, 0.038700718433, -0.085738755763, 0.100259333849, 0.061284746975, 0.143661752343, -0.045026190579, -0.022417366505, -0.054651632905, -0.076876103878, 0.014014931396, -0.033787339926, 0.032755345106, 0.001870468026, 0.036509357393, 0.005897450726, -0.018793733791, -0.008648620918, -0.117897599936, 0.003477607388, 0.082822591066, 0.023448532447, 0.068118751049, -0.089712224901, 0.001863615355, -0.066318131983, 0.089495278895, 0.075536094606, -0.157573848963, -0.040149029344, 0.019292252138, 0.081089235842, 0.038149204105, 0.023600762710, -0.019511895254, -0.113847799599, 0.041449651122, 0.092574872077, 0.010768478736, -0.097104772925, -0.003693162231, 0.032762128860, -0.010395798832, -0.096033178270, -0.085742078722, 0.004511949141, 0.061920028180, -0.105070456862, 0.153160780668, -0.031249588355, 0.037433203310, -0.036068234593, 0.086785368621, -0.135466337204, -0.021125636995, 0.006450589281, -0.158442020416, -0.056935872883, -0.057547282428, 0.067824281752, 0.055012702942, -0.057986360043, 0.018078133464, -0.021668605506, 0.018149724230, 0.087822176516, 0.015966333449, 0.008672022261, 0.090050816536, 0.031037503853, -0.136437132955, 0.095917224884, -0.006496530026, -0.174383640289, -0.133145213127, 0.097301028669, 0.016313623637, 0.098456159234, -0.074522808194, 0.045005783439, -0.026548573747, 0.071135573089, -0.032091330737, -0.044190280139, -0.027198130265, -0.101379007101, -0.114614062011, -0.010214507580, 0.005733769853, -0.088057801127, 0.066018335521, 0.067714668810, 0.101429805160, -0.157693490386, -0.190133064985, 0.223546057940, 0.035748846829, -0.088911071420, -0.113155640662, -0.070403382182, 0.060201633722, 0.077866502106, 0.144330620766, -0.112942494452, -0.071534514427, 0.041665270925, -0.049080122262, -0.138814911246, 0.174387350678, 0.079428412020, 0.025225978345, -0.056240200996, -0.178790688515, 0.019748222083, 0.066445037723, -0.152763485909, 0.053887359798, -0.014115706086, -0.049752615392, 0.095909528434, -0.058557659388, 0.084934629500, 0.100542083383, -0.032345805317, 0.056020509452, -0.192867830396, -0.103758990765, 0.053364511579, -0.052667070180, 0.097310803831, -0.044006627053, -0.048437830061, -0.041040614247, 0.122570306063, 0.072412960231, 0.054554048926, -0.141893073916, 0.036519933492, 0.050424776971, -0.054998274893, -0.190763100982, 0.004045153037, -0.025695657358, -0.068926721811, -0.193265825510, 0.067806750536, 0.063774541020, -0.066080078483, -0.000532350386, 0.091340683401, -0.060755997896, -0.012999146245, -0.050163403153, 0.032541465014, 0.085108555853, 0.013566434383, 0.158079564571, -0.156361892819, 0.099614605308, -0.081172406673, 0.102090202272, -0.051891673356, -0.066059537232, 0.013489682227, -0.164979204535, 0.144603028893, 0.026071773842, -0.003640898969, -0.054966948926, -0.084401197731, -0.147616416216, 0.066051438451, 0.040023073554, -0.041017334908, -0.135772481561, -0.103699527681, -0.139636024833, 0.037596020848, 0.015700461343, 0.007781664841, -0.006391874049, -0.195896878839, -0.095267713070, 0.066135890782, 0.041010156274, -0.059670984745, -0.007666643709, 0.016026530415, 0.160808101296, 0.048423953354, -0.098364599049, 0.038268256932, 0.033912498504, -0.026019647717, -0.047363448888, -0.095817364752, -0.043165259063, 0.084974288940, 0.017733873799, 0.058846864849, -0.117213003337, -0.018075574189, -0.065717950463, 0.179660081863, -0.144613012671, -0.051645297557, -0.071491748095, -0.016507515684, -0.085645817220, 0.103562735021, -0.117885015905, 0.093129746616, -0.071091540158, -0.017833851278, -0.042884103954, 0.013160967268, 0.060518588871, -0.074767574668, 0.010928330012, 0.141803801060, 0.066730350256, -0.052067615092, 0.117618024349, 0.160725742579, 0.123418085277, 0.023015780374, -0.000318772683, -0.046812631190, 0.020198604092, 0.033885464072, 0.020614987239, -0.107923857868, -0.051675710827, 0.064187362790, -0.033986628056, -0.102622665465, -0.097542352974, -0.021582964808, 0.026887744665, -0.012375434861, 0.117651134729, 0.059007644653, -0.073884055018, -0.004311847501, -0.025345113128, -0.043101660907, -0.134046822786, -0.240721762180, 0.000834611186, -0.047254391015, 0.093651831150, 0.154002368450, 0.085855416954, -0.090185321867, 0.032358340919, -0.115776278079, 0.123881615698, 0.012913544662, -0.007779124193, 0.011187377386, 0.171765550971, -0.072237506509, -0.187110587955, 0.018556756899, 0.227851912379, -0.309774786234, -0.077817201614, 0.056203942746, 0.039413128048, 0.256535053253, 0.057858418673, 0.012688259594, -0.005549982190, 0.079705506563, 0.048698503524, 0.171007245779, 0.014614420012, -0.040397144854, -0.056124608964, 0.149212449789, 0.129924938083, 0.045388709754, 0.021622428671, 0.166355624795, -0.140982314944, -0.151208043098, -0.041753176600, 0.064921595156, -0.026863709092, 0.111572712660, -0.066229246557, -0.010983638465, 0.022848200053, -0.213261798024, 0.169766396284, -0.011738576926, 0.047073300928, 0.034798886627, 0.056865122169, -0.010616528802, -0.096066556871, 0.014660874382, -0.035364024341, 0.090937376022, 0.143903955817, 0.173286825418, -0.123144596815, -0.045389015228, 0.086028836668, 0.033980961889, -0.207634001970, -0.131261557341, -0.039132956415, 0.163467288017, 0.151765033603, 0.188233390450, 0.114554710686, -0.027791569009, -0.003007738385, -0.085846595466, 0.009044671431, 0.148509696126, -0.088377363980, -0.013314655982, 0.261074006557, -0.001540238038, -0.200302883983, -0.003751542885, 0.270052492619, -0.383889049292, 0.015830950812, 0.136524170637, -0.104976490140, 0.121227398515, 0.058530598879, -0.051155414432, -0.003080952680, 0.135246306658, 0.061970870942, 0.044120293111, -0.119105696678, -0.140322491527, 0.022460332140, -0.043104037642, 0.078121028841, 0.075899019837, -0.055107582361, 0.143270865083, -0.069674558938, -0.120177596807, -0.145997047424, 0.169713199139, 0.193579465151, 0.112997554243, 0.051731128246, 0.072574585676, -0.051448620856, -0.444579422474, 0.071549490094, -0.037948112935, 0.051441036165, 0.001933654421, 0.126632511616, -0.045937117189, -0.079358831048, 0.021351059899, -0.129561066628, -0.178522631526, -0.063959568739, -0.046277858317, 0.027135556564, 0.063408680260, -0.180358633399, -0.011288406327, -0.142366960645, 0.096976883709, -0.029598027468, -0.113173477352, -0.045557469130, -0.029308550060, 0.128753706813, -0.017094383016, 0.025873539969, 0.006900319364, -0.031685296446, -0.056507851928, -0.197750195861, 0.157995641232, -0.010661357082, -0.049895860255, 0.039119862020, 0.090859562159, -0.051157847047, 0.075856663287, -0.103631980717, -0.073321513832, -0.081845827401, -0.061801958829, -0.031295180321, 0.020716715604, 0.064250119030, -0.016660522670, 0.040643204004, 0.042151629925, 0.073380805552, -0.037333399057, -0.072644695640, 0.074169762433, -0.007744420785, -0.197178408504, 0.054342251271, -0.082106865942, 0.117711730301, -0.105795055628, 0.118214353919, -0.009195904247, 0.037170063704, 0.046887986362, -0.034800283611, -0.005229325034, -0.158757731318, 0.031600497663, -0.064682655036, -0.077952668071, -0.003911607899, -0.070158265531, 0.023345816880, 0.168393805623, -0.104167513549, -0.066029049456, -0.097342632711, -0.209551870823, 0.104162439704, -0.086020380259, 0.074539378285, -0.033315844834, -0.001254611765, -0.004304718692, 0.036838606000, 0.110285110772, 0.090247400105, 0.031829498708, -0.057027403265, 0.020011909306, 0.012768988498, 0.107870407403, 0.094128571451, 0.194266542792, 0.039038106799, 0.035321064293, -0.156340867281, 0.136920973659, -0.021436326206, 0.031717512757, -0.051773957908, -0.060190431774, 0.095536082983, -0.047032520175, 0.046857234091, 0.046597748995, 0.244543895125, 0.134219408035, 0.038589581847, 0.006267743651, 0.024904465303, 0.051304977387, -0.006597304717, -0.050423797220, 0.176790624857, 0.020131630823, -0.045148633420, -0.005342713557, -0.032413084060, -0.241905882955, 0.006781150587, 0.076280727983, -0.056751087308, 0.161153092980, 0.137321740389, 0.173891618848, -0.011777359992, 0.103694766760, -0.154308900237, -0.071838349104, 0.045339353383, 0.047431342304, -0.007126117125, 0.031323041767, 0.069108381867, -0.038798630238, -0.109236419201, 0.167626932263, -0.028973320499, -0.001157083316, 0.021921744570, -0.057309206575, 0.138773649931, 0.000889146409, 0.110649496317, 0.083478294313, -0.077335901558, -0.013813409023, -0.166070848703, 0.120593167841, -0.007700396702, -0.137353062630, -0.147140577435, 0.061298891902, 0.041503820568, -0.050162430853, 0.020210888237, 0.075206734240, 0.068333283067, -0.003182368353, -0.041714243591, -0.015132205561, 0.110342651606, -0.021835898980, -0.125840604305, 0.030779410154, 0.051386237144, -0.058206602931, 0.046649813652, -0.002083139028, 0.031102718785, 0.005847702269, -0.050130508840, 0.057207077742, 0.070479139686, 0.091047212481, -0.128160968423, 0.056885514408, -0.024402083829, 0.013665183447, -0.070493385196, -0.006077434868, 0.022668786347, -0.127648621798, 0.028199510649, 0.105821266770, -0.000184917590, -0.105555333197, -0.025095313787, 0.104341670871, 0.047819316387, 0.195059850812, -0.076815553010, -0.068519309163, 0.122711986303, 0.085554070771, 0.073878489435, -0.087795443833, -0.000264792441, -0.040927156806, 0.093702659011, -0.066581435502, 0.115986026824, 0.235889956355, 0.141487449408, -0.029383517802, -0.218763947487, 0.099241279066, 0.026889134198, -0.117092669010, -0.018301991746, 0.017846163362, 0.025298446417, 0.068336337805, 0.090951986611, 0.167318508029, 0.047444652766, -0.145924031734, 0.079733744264, -0.219217553735, -0.154808506370, -0.020443990827, -0.036587670445, 0.013571300544, 0.119243793190, 0.039583913982, 0.032825555652, 0.141659602523, 0.065854594111, 0.053096868098, -0.172182276845, 0.157302334905, -0.021672721952, -0.166171744466, -0.056541986763, 0.052030190825, -0.105316981673, 0.136861860752, -0.063695356250, 0.002376820426, 0.048458103091, -0.054699104279, 0.167623579502, 0.095815941691, -0.215679898858, -0.034867435694, 0.057014431804, -0.053585726768, 0.067032895982, -0.214141249657, 0.108293846250, 0.016546348110, 0.079785712063, 0.108287423849, 0.030382772908, 0.024815566838, -0.031126456335, 0.029872342944, -0.028581317514, 0.256582081318, 0.020613903180, 0.187729492784, 0.027123987675, -0.128384605050, 0.011194977909, 0.009198807180, 0.060196470469, -0.073995202780, 0.026938574389, -0.125347152352, -0.068221598864, 0.124026358128, 0.027905600145, 0.106450162828, -0.150738075376, -0.176229014993, -0.126545056701, -0.004551036749, 0.136152759194, 0.051122915000, -0.045358762145, 0.120683424175, 0.132120296359, 0.013296227902, 0.096554987133, -0.034505903721, 0.056168098003, -0.078008949757, -0.146190345287, -0.064742520452, -0.076255694032, -0.023720825091, 0.075205683708, 0.198994904757, -0.060139596462, 0.063990242779, -0.062723666430, 0.080512560904, -0.091357521713, -0.044406156987, -0.089270398021, -0.087453335524, 0.069906458259, 0.114275902510, -0.024746166542, 0.146246895194, -0.010833977722, 0.087509691715, 0.068638600409, 0.019766550511, 0.112408719957, -0.136003822088, 0.091707974672, 0.015427601524, 0.015918411314, -0.019747644663, 0.030769949779, -0.012088108808, 0.069629818201, 0.102043263614, -0.091266855597, 0.011348416097, -0.094275511801, 0.157359763980, -0.041297148913, -0.012990844436, 0.020191017538, 0.053788807243, -0.132529675961, 0.067562811077, 0.075014978647, -0.139914587140, 0.048794686794, -0.075469098985, 0.100745670497, 0.091990441084, -0.100779257715, -0.037572979927, 0.020269952714, -0.023130333051, -0.256412804127, -0.115475982428, -0.031665734947, 0.070314668119, 0.124114647508, 0.111858636141, 0.010290016420, 0.032339852303, 0.035818163306, -0.117970719934, 0.148240372539, 0.126211196184, -0.001474298304, 0.084667108953, 0.059732761234, 0.055385384709, -0.112012907863, 0.037735853344, 0.112836509943, -0.231744244695, -0.018127175048, 0.074997261167, -0.062171332538, 0.091821126640, -0.097366109490, 0.089453577995, 0.096679642797, 0.036788664758, 0.066926434636, 0.054544784129, -0.133684217930, -0.042828060687, 0.190019130707, 0.129477515817, 0.127424091101, -0.057590514421, 0.013637175784, 0.130479499698, -0.117281422019, -0.211114197969, -0.177743554115, 0.029889717698, 0.069692678750, 0.014478419907, 0.031283289194, 0.115502953529, 0.029670473188, -0.442444741726, 0.041646610945, -0.084643729031, -0.005018061027, 0.139654085040, 0.106991790235, -0.035367090255, 0.017295595258, 0.057166561484, 0.073365114629, 0.122850187123, 0.097639128566, 0.068259812891, -0.104024663568, 0.015840478241, -0.022589966655, 0.043179079890, -0.230239540339, -0.078231841326, -0.045751992613, 0.048388555646, 0.121277995408, 0.048642568290, 0.056742679328, 0.013792197220, -0.058581277728, -0.025370761752, 0.056441981345, 0.045117795467, -0.090835325420, 0.144403472543, 0.068005308509, -0.046956472099, -0.096685424447, 0.048882551491, 0.302203416824, -0.353862166405, 0.020456537604, 0.069775134325, 0.041943609715, 0.123823031783, -0.061149910092, -0.049624435604, -0.007978184149, 0.155305221677, 0.107307560742, 0.139413580298, -0.050268676132, -0.146012634039, 0.130227521062, 0.203821405768, 0.113920256495, 0.009367713705, -0.082233890891, 0.097129732370, -0.010503474623, -0.175429627299, -0.131970942020, 0.040742725134, 0.026720765978, 0.092210166156, 0.117399297655, 0.121918044984, -0.062024638057, -0.519649565220, 0.065932080150, 0.043784830719, 0.098973259330, 0.075229682028, -0.066669739783, 0.057372190058, 0.028025396168, 0.016216984019, 0.094335600734, -0.196167573333, -0.031130766496, 0.175466939807, 0.116340599954, 0.020967395976, -0.075131356716, -0.027773806825, -0.013964992948, 0.109530791640, 0.142620742321, 0.048428121954, -0.094851031899, 0.064950756729, 0.166295707226, 0.103690855205, -0.059272840619, -0.053483594209, -0.004999751225, -0.120206125081, -0.062994606793, 0.128821402788, -0.018666563556, -0.010403946042, -0.070997297764, 0.174833148718, -0.031479507685, 0.103377781808, 0.072254970670, 0.079068787396, -0.060410141945, -0.098475813866, -0.057405501604, -0.077394574881, 0.077880397439, 0.067031867802, 0.041307598352, -0.085902072489, 0.030920745805, 0.116635002196, 0.055581249297, -0.064852565527, 0.028624890372, -0.175158545375, 0.088137120008, -0.073393456638, 0.170459240675, 0.094281010330, 0.070183403790, -0.041548445821, 0.035529438406, 0.040874954313, -0.071178264916, 0.128073781729, -0.138811796904, 0.152898922563, -0.058644518256, 0.142151340842, -0.085755802691, -0.060604434460, 0.051961664110, 0.137218937278, 0.002699735574, -0.026327548549, -0.108717471361, -0.165298789740, -0.079605326056, 0.179073363543, 0.171774342656, 0.156100317836, -0.080043420196, -0.052051581442, 0.014281935990, -0.013672116213, -0.110259421170, -0.016697611660, -0.118752829731, -0.011949914508, -0.012838740833, 0.109488584101, 0.129280298948, 0.136792883277, 0.069497227669, -0.088392920792, -0.024145780131, 0.186878681183, -0.005678135436, -0.026279261336, -0.022735785693, -0.072550714016, 0.093299433589, 0.041995212436, 0.074937082827, -0.005124507472, 0.102208651602, 0.084162503481, -0.044038869441, 0.161479040980, 0.163219898939, 0.191779822111, 0.145679995418, -0.045596480370, 0.017449652776, -0.044869247824, -0.002435472561, 0.004455593880, -0.154944166541, -0.213327392936, 0.034676451236, 0.031681355089, -0.013778069057, -0.018100149930, -0.047712702304, -0.050255306065, 0.080770269036, 0.096823878586, -0.070198692381, 0.040357656777, 0.046385042369, 0.096803672612, -0.014262176119, 0.008392854594, 0.066717669368, 0.040878057480, 0.023759782314, 0.158808469772, -0.039479650557, -0.042621787637, 0.024162419140, -0.116929396987, -0.062868639827, 0.194530278444, 0.006294782739, 0.066016472876, -0.162484362721, -0.026488976553, -0.086132705212, -0.068416617811, -0.020613366738, -0.023603294045, -0.079093433917, 0.160373777151, 0.103552088141, 0.129155665636, 0.033539146185, 0.012094309554, 0.141296893358, -0.033163119107, -0.153264343739, 0.224417373538, -0.077487312257, -0.055655382574, -0.043544966727, 0.003178864252, -0.131748944521, -0.079944416881, 0.009968707338, 0.173039019108, -0.027853470296, 0.075664579868, -0.017140999436, -0.013600489125, 0.133277520537, 0.069526240230, 0.043399717659, 0.017856590450, -0.026169613004, 0.100212372839, 0.022146983072, 0.067790910602, 0.043872393668, -0.099127307534, -0.027318717912, -0.029902819544, -0.028945846483, -0.079872354865, -0.028414893895, 0.055365212262, 0.151181250811, 0.147369191051, -0.126184061170, -0.075110137463, -0.032182067633, 0.008125886321, -0.012284195051, 0.033990047872, 0.121280744672, 0.088040679693, 0.022071985528, -0.220990613103, 0.082498587668, 0.144315868616, -0.079898588359, 0.047496292740, -0.177324593067, 0.004941320047, 0.051487736404, -0.011014959775, 0.108311951160, -0.020534439012, 0.216371759772, 0.196838855743, 0.065678730607, 0.101510345936, -0.090392634273, 0.024883208796, -0.115784309804, -0.177040487528, -0.191358640790, -0.164966508746, -0.056870784611, -0.001975729829, 0.068597234786, -0.144356131554, -0.016298487782, 0.075625397265, -0.029843201861, 0.028492502868, -0.214169889688, 0.319881558418, 0.080914705992, -0.242857471108, -0.048998426646, -0.067521162331, -0.061064042151, 0.040510710329, 0.057908970863, -0.042020294815, 0.106129512191, -0.167727753520, 0.170821756124, 0.053958237171, -0.273756325245, -0.180247157812, 0.010029918514, -0.106221891940, 0.178867056966, -0.129792571068, 0.011507363059, 0.088889271021, -0.030068343505, 0.145966678858, 0.040402121842, 0.041023679078, 0.090967327356, 0.037387110293, -0.015880130231, 0.053604956716, -0.109561294317, 0.187294945121, 0.008610878140, -0.078424245119, -0.035910468549, 0.018117500469, 0.145733460784, 0.036470465362, 0.000638197933, -0.148572206497, -0.077239558101, 0.087305337191, 0.023592380807, 0.080089911819, -0.140723392367, -0.114387989044, -0.073978923261, 0.133592858911, 0.071400456131, -0.007587707601, -0.051436975598, -0.093749061227, 0.098161540926, 0.096525222063, -0.121774971485, -0.083993218839, -0.032864939421, 0.044847127050, -0.162017941475, 0.146254420280, -0.000676924479, -0.118952102959, -0.095618136227, 0.141248688102, -0.206250637770, -0.028509972617, 0.028616888449, 0.031153846532, -0.053277801722, -0.030448459089, -0.133600011468, -0.073362678289, -0.086466118693, 0.079221345484, -0.060061726719, 0.056817121804, 0.019460285082, -0.019788688049, 0.016334420070, 0.049255233258, 0.033029317856, -0.173773854971, 0.002197477734, 0.034871511161, 0.080088526011, -0.048781879246, -0.000437620678, 0.093961834908, 0.047181863338, 0.047813154757, -0.059520471841, 0.118125163019, -0.055919568986, 0.083031855524, -0.143281772733, 0.042327415198, 0.035065725446, -0.056833203882, -0.011108697392, 0.025605216622, 0.169717997313, -0.186672613025, 0.068929597735, -0.035974230617, 0.011046976782, 0.174273192883, 0.001498758909, 0.066303335130, -0.104800865054, -0.033190276474, -0.238736703992, 0.075061827898, 0.015752423555, 0.109804280102, 0.146924942732, -0.017487103119, 0.069761492312, 0.061607409269, 0.030892319977, -0.104680702090, 0.042568940669, 0.117799520493, -0.080246627331, 0.069669060409, 0.096417225897, -0.042948495597, -0.112976029515, -0.061890821904, 0.236911073327, -0.296388924122, 0.002008588286, 0.047401897609, 0.002556170337, 0.018105754629, -0.013072323985, 0.047574684024, 0.000331893156, 0.069547079504, 0.063250832260, 0.072330795228, 0.032241236418, -0.248511642218, 0.142409265041, 0.190095841885, 0.030293626711, -0.031713746488, 0.050661675632, 0.111170582473, 0.013977663592, -0.147880673409, -0.018973561004, 0.144015714526, 0.021735362709, -0.045189987868, 0.091623604298, -0.026870455593, 0.005269655958, -0.263281702995, 0.080280192196, 0.022894380614, 0.026190157980, 0.066237732768, -0.135156154633, -0.033408023417, 0.167102411389, -0.146353602409, 0.045970205218, 0.014924920164, 0.056995783001, 0.160736858845, -0.169307798147, 0.089819923043, 0.037031736225, -0.084330454469, -0.077442869544, 0.010874947533, -0.058826483786, -0.029226139188, 0.270933508873, 0.089644543827, -0.011326028965, -0.082166865468, -0.013476413675, -0.151130110025, -0.066073149443, 0.130193769932, 0.062933444977, 0.086608134210, 0.096767202020, -0.087210707366, -0.190510436893, 0.021859025583, 0.132356539369, -0.207971230149, -0.023118793964, 0.127668097615, -0.041191171855, 0.039269603789, -0.006044765469, 0.090051315725, -0.208809316158, -0.047591898590, 0.065807826817, 0.087163925171, -0.001387307653, -0.280029177666, 0.012352492660, 0.170858249068, 0.172340527177, 0.153310805559, 0.013020906597, 0.090848192573, -0.107243284583, -0.105296477675, -0.195779100060, 0.019555941224, 0.055964872241, -0.075245134532, 0.132342278957, -0.031161742285, 0.067833684385, -0.338174670935, 0.053435575217, -0.045310601592, 0.007892768830, 0.070451654494, 0.012939452194, -0.019083790481, 0.089221410453, 0.019620956853, -0.132532477379, -0.015762623399, -0.163267344236, 0.123957358301, 0.136713549495, 0.088489644229, 0.045093249530, -0.121752955019, 0.022671824321, 0.103037655354, 0.139841362834, -0.072661466897, -0.186208695173, -0.139684841037, 0.094886250794, 0.119190432131, 0.069240652025, 0.060637969524, 0.030556457117, 0.022030860186, -0.165862724185, 0.090365402400, -0.091914497316, -0.001601803699, -0.006198165007, -0.020525095984, -0.075160838664, 0.215446725488, 0.053784232587, 0.096060313284, 0.060077771544, -0.080465592444, -0.156065240502, 0.095426924527, -0.026704538614, 0.086732976139, -0.017202824354, -0.121060587466, 0.008919494227, 0.067232497036, -0.123327873647, -0.018410114571, -0.097511336207, -0.154279649258, 0.061805587262, -0.127365842462, -0.060420069844, 0.014510323294, 0.109621062875, -0.030630620196, 0.040553390980, 0.158906549215, 0.007848405279, 0.076410882175, -0.136889472604, 0.012834765017, -0.059700977057, 0.072209484875, 0.074252836406, -0.071554608643, 0.063970327377, 0.169655337930, 0.118890024722, 0.000781437149, 0.063251323998, -0.181847810745, 0.003149201628, 0.045917924494, 0.106586292386, 0.031850926578, -0.071177035570, -0.088516831398, -0.054555080831, 0.034646108747, -0.009865760803, 0.049475379288, -0.226567506790, 0.017014876008, -0.066223770380, -0.030133625492, 0.048993974924, 0.124330051243, 0.214266926050, -0.147903084755, -0.160557314754, 0.243087828159, 0.033394850791, -0.104098632932, -0.188570544124, -0.050758954138, 0.012769456021, -0.100012972951, 0.041260886937, 0.046282142401, 0.037534605712, 0.017269616947, 0.031986501068, 0.057850152254, -0.029219448566, 0.061066869646, 0.078920193017, -0.074837304652, 0.068985141814, -0.045554421842, 0.020491311327, -0.044857326895, -0.155215159059, -0.192197978497, 0.081598483026, -0.065038144588, 0.099928028882, -0.055971693248, 0.058527398854, -0.042476955801, -0.006446090061, -0.045932553709, -0.194528609514, 0.038115493953, -0.001569275977, -0.083532281220, 0.147976458073, -0.017290955409, 0.179978027940, -0.110708624125, -0.053719323128, 0.057490859181, 0.091522268951, 0.013018984348, -0.000811093487, -0.189691483974, -0.037804640830, 0.184972599149, 0.067262433469, 0.010788482614, 0.045605935156, -0.171792447567, -0.041823621839, -0.002790401457, -0.006804092322, -0.024772247300, -0.100862689316, 0.093416035175, 0.104416750371, 0.093654155731, 0.079916529357, -0.036392778158, -0.029400756583, -0.026718227193, -0.016853915527, 0.192547321320, -0.084226377308, -0.038340635598, -0.034376312047, -0.055623825639, 0.032116532326, 0.014404151589, 0.147933974862, -0.041491895914, -0.045927248895, -0.000097845041, 0.120096318424, 0.083570368588, 0.080803066492, 0.151452720165, -0.009020700119, 0.001426050439, -0.033689949661, 0.082328699529, -0.003502573119, -0.004494499881, -0.062115017325, -0.154656127095, 0.058161746711, 0.003782273969, -0.028311826289, -0.080858327448, 0.001612444641, 0.097932226956, 0.121732361615, -0.067801885307, -0.140117481351, 0.141524150968, -0.111038848758, -0.027994461358, -0.064738549292, -0.001279968070, 0.078681252897, -0.055947035551, -0.173264190555, -0.183267608285, -0.113217107952, 0.032585095614, -0.097194127738, 0.072797581553, -0.123975835741, -0.035542592406, -0.005040536635, -0.095734000206, 0.174120277166, -0.096653066576, 0.177332758904, 0.231883957982, -0.086127914488, -0.050213869661, -0.186325833201, 0.017205528915, -0.045032858849, 0.002740289783, -0.077018007636, -0.102938637137, -0.044040463865, 0.003875381546, 0.130245104432, -0.059882763773, 0.049106530845, 0.111318558455, -0.070547245443, 0.109555445611, -0.362057268620, 0.276788711548, -0.111217878759, -0.056281030178, 0.049624662846, 0.039802502841, 0.040730286390, 0.175452008843, -0.023419754580, 0.008856313303, -0.017044641078, -0.246091559529, 0.072628602386, 0.090290628374, -0.179949447513, -0.244487881660, 0.006460543722, -0.268709808588, 0.186715945601, -0.236525118351, -0.055540505797, 0.246113434434, 0.110317081213, 0.141035422683, -0.093115732074, 0.030366856605, 0.124270409346, 0.069032989442, -0.191166356206, 0.126110032201, -0.041848614812, 0.020710434765, 0.002853287384, -0.053697720170, -0.082471765578, -0.010403152555, 0.149561017752, 0.036452297121, -0.112938977778, -0.169715955853, -0.081944398582, 0.103894002736, 0.079392850399, 0.151067078114, 0.061982408166, -0.136270076036, 0.131102740765, 0.174782261252, 0.116707660258, -0.058145418763, -0.164398863912, 0.017103398219, 0.106610983610, -0.033158581704, -0.023057501763, -0.061666898429, -0.076032713056, -0.028514895588, -0.159652382135, 0.052569288760, 0.034610264003, -0.147245869040, -0.122538000345, 0.148575842381, -0.125794827938, 0.036699414253, -0.016032204032, -0.001693720114, -0.119035333395, 0.008201359771, -0.096196450293, 0.030701655895, -0.035896688700, 0.029100721702, 0.091609336436, -0.095086611807, 0.096708960831, 0.062755465508, -0.045747198164, -0.023825984448, 0.057858683169, -0.129533037543, 0.075618028641, -0.124904476106, 0.036604192108, 0.108159005642, 0.016882505268, 0.036639563739, 0.043733362108, 0.157514020801, -0.041573826224, 0.160468935966, -0.078459292650, 0.030188752338, 0.032952152193, 0.073189124465, -0.018414987251, -0.111592441797, -0.008472081274, -0.027946678922, 0.083458565176, -0.073527313769, 0.121204778552, 0.067938067019, 0.065585240722, -0.009673961438, -0.199451282620, 0.120039865375, -0.041451208293, 0.007632424124, 0.006295472849, 0.078508548439, 0.075731888413, -0.100340567529, 0.167078644037, 0.031564958394, 0.107044182718, -0.061432138085, 0.064877785742, -0.108728364110, -0.009294165298, 0.045212887228, -0.107183255255, 0.183391153812, 0.100890025496, -0.111520648003, -0.142033562064, 0.057082705200, 0.180648535490, -0.156663790345, 0.043581280857, 0.047126725316, 0.032230269164, -0.071426063776, -0.159079968929, 0.050376944244, -0.040785789490, 0.093526206911, 0.049081951380, 0.039170574397, -0.076651573181, -0.342144966125, -0.001929566031, 0.148244261742, 0.060792542994, 0.072702549398, -0.114992000163, -0.007046541199, 0.127951398492, -0.169856041670, -0.093803875148, -0.064070910215, 0.054904226214, -0.148089706898, -0.046976197511, 0.003382858122, -0.099591113627, -0.313617467880, 0.040950939059, -0.163445979357, -0.005860501435, 0.024841485545, -0.141857817769, 0.037158444524, 0.060271032155, 0.017478488386, 0.182280570269, 0.018511762843, 0.060948345810, 0.121425405145, -0.241540640593, 0.116690054536, 0.102417238057, -0.099270135164, -0.117507919669, 0.115492738783, -0.051649861038, 0.077041938901, 0.256983727217, 0.077136382461, 0.096464686096, -0.081900164485, -0.056923706084, -0.331276684999, -0.065411090851, 0.125299870968, -0.002721510129, -0.004870688077, 0.052618090063, -0.105992935598, 0.011903957464, 0.138202846050, 0.240322798491, -0.138148993254, -0.167154505849, -0.100174099207, 0.041262328625, -0.087386101484, -0.052472446114, 0.013844768517, -0.129342839122, -0.061831478029, 0.023498658091, 